{"lstm.weight_ih_l0": [[-0.526410698890686], [-0.3403547406196594], [0.23258672654628754], [0.00011025485582649708], [0.09806684404611588], [0.17179559171199799], [-0.273233562707901], [-0.15465010702610016], [-0.1891956627368927], [0.03711952269077301], [-0.6324115991592407], [-0.1409565806388855], [0.09094031900167465], [0.030677158385515213], [-0.49665459990501404], [-0.02027137577533722], [-0.24386876821517944], [0.16582831740379333], [-0.06948830932378769], [0.2761559784412384], [-0.20909017324447632], [-0.1210416704416275], [0.1568685919046402], [-0.14181819558143616], [0.15692374110221863], [0.06771960854530334], [-0.15820084512233734], [-0.0639394074678421], [-0.1523352414369583], [0.052225299179553986], [0.09009702503681183], [0.048591792583465576], [-0.5646541714668274], [-0.7643804550170898], [0.1651684194803238], [-0.018857905641198158], [0.05138619616627693], [0.10721506178379059], [-0.31682857871055603], [-0.4760008752346039], [-0.3581730127334595], [0.010723305866122246], [-1.0413944721221924], [-0.16685804724693298], [0.06010891869664192], [0.18839548528194427], [-0.5272983312606812], [-0.015402719378471375], [-0.341328889131546], [0.18969368934631348], [-0.07753826677799225], [0.20749197900295258], [-0.24459324777126312], [-0.2688460052013397], [0.09592714160680771], [-0.13873471319675446], [0.21800756454467773], [0.30094629526138306], [-0.05809205025434494], [-0.07050921022891998], [-0.1484328806400299], [0.04497825726866722], [0.19646339118480682], [0.05021854117512703], [-1.2385586500167847], [0.8483626246452332], [-0.8040940761566162], [0.3104907274246216], [0.4327026307582855], [-0.6737167239189148], [-0.8171125054359436], [-0.23863650858402252], [0.49586859345436096], [0.1479567438364029], [-0.2673547565937042], [0.8212820291519165], [0.3013327121734619], [-0.009508326649665833], [-0.1268780529499054], [0.3462050259113312], [0.12402426451444626], [0.3221789002418518], [-0.1233510971069336], [-0.9305984973907471], [1.0602895021438599], [-0.17638839781284332], [0.6547369956970215], [0.05188789963722229], [-0.2314170002937317], [-0.14671871066093445], [-0.18620458245277405], [0.5498608946800232], [-0.059707626700401306], [0.02289799228310585], [-0.19474568963050842], [0.19070829451084137], [-0.5866599082946777], [-0.47695356607437134], [0.13307280838489532], [0.003798165125772357], [0.10437516868114471], [0.08306460827589035], [-0.2995148301124573], [-0.27643314003944397], [-0.3358471095561981], [-0.02444351837038994], [-0.793150782585144], [-0.03263642266392708], [0.11522045731544495], [0.08857053518295288], [-0.31315162777900696], [-0.019397558644413948], [-0.26524633169174194], [0.032763607800006866], [-0.028467362746596336], [0.21035677194595337], [-0.2576417624950409], [-0.3644118010997772], [0.1570485234260559], [-0.11117541044950485], [0.10093219578266144], [0.07679253071546555], [-0.15983998775482178], [-0.0687827467918396], [-0.259983092546463], [-0.04665372893214226], [0.003669988363981247], [0.029058629646897316]], "lstm.weight_hh_l0": [[-0.01942445896565914, -0.16782470047473907, 0.06295306980609894, -0.04990122839808464, -0.07940283417701721, 0.3298398554325104, 0.087954081594944, 0.10111615061759949, 0.008016581647098064, 0.04983462393283844, -0.01300196722149849, -0.030157415196299553, 0.04965904355049133, 0.058758679777383804, -0.2708228826522827, 0.035915106534957886, 0.0684289038181305, -0.20989924669265747, -0.009483493864536285, 0.13094933331012726, -0.060086410492658615, 0.08410724997520447, -0.04466988518834114, -0.06255628913640976, 0.12530258297920227, -0.11627854406833649, 0.35345521569252014, -0.0997404009103775, 0.12373799085617065, 0.0930195301771164, 0.3115714490413666, 0.0021464545279741287], [0.29130086302757263, -0.29082444310188293, 0.00580319669097662, 0.04871155694127083, 0.03173166885972023, 0.15329258143901825, 0.09309425204992294, -0.10463178902864456, 0.06877215951681137, -0.047769125550985336, -0.30150508880615234, 0.1577785164117813, -0.047654952853918076, 0.11060334742069244, -0.182602196931839, -0.08715741336345673, -0.19183410704135895, -0.18129630386829376, -0.09853159636259079, 0.061835482716560364, -0.12915025651454926, -0.04929668828845024, -0.08014632761478424, 0.0375978946685791, -0.023299865424633026, -0.056332264095544815, 0.14085203409194946, -0.013423822820186615, -0.06627041101455688, 0.12805575132369995, 0.028424197807908058, -0.1396484076976776], [-0.17220032215118408, 0.2649078667163849, -0.18531440198421478, -0.09195729345083237, -0.0667392686009407, -0.003854576498270035, -0.02961769327521324, 0.13095031678676605, -0.050656381994485855, 0.009654227644205093, 0.4512534737586975, 0.06732630729675293, 0.15626753866672516, -0.06995084881782532, 0.0873541459441185, -0.17833945155143738, 0.2825890779495239, 0.04731003940105438, 0.1803109496831894, -0.0784778743982315, 0.12810355424880981, 0.21663764119148254, 0.07097475230693817, -0.012708475813269615, 0.06959561258554459, -0.37132906913757324, 0.030149979516863823, 0.022261200472712517, 0.29725930094718933, -0.08920180797576904, 0.10066606849431992, 0.2149512767791748], [-0.05970292165875435, 0.04220431298017502, 0.01636371947824955, 0.03236452862620354, 0.009825661778450012, 0.023964807391166687, -0.024174844846129417, -0.0014464122941717505, -0.007698714267462492, 0.010894572362303734, -0.04888666793704033, 0.017486149445176125, 0.008407970890402794, 0.11593722552061081, -0.11571666598320007, 0.005273108836263418, 0.024867743253707886, -0.04521546885371208, -0.015339131467044353, 0.009120739996433258, 0.021588701754808426, -0.0854516327381134, 0.007715001702308655, -0.13900311291217804, 0.09303085505962372, -0.06422163546085358, 0.04921840503811836, 0.0025005489587783813, -0.02913985401391983, 0.04923233017325401, 0.06318613141775131, -0.0077368393540382385], [-0.044419702142477036, 0.060575779527425766, -0.0328461118042469, -0.0033346619457006454, 0.007050611078739166, 0.03911793231964111, -0.04985980689525604, 0.04490547999739647, 0.04270582273602486, 0.026458924636244774, 0.08960776031017303, 0.01573708839714527, 0.013783798553049564, 0.015089093707501888, -0.012190917506814003, 0.002729823114350438, 0.03666555508971214, -0.0057454947382211685, -0.03197888284921646, -0.01111765205860138, 0.04022436961531639, -0.10920854657888412, 0.02824024297297001, -0.11826484650373459, 0.09132036566734314, -0.03910979628562927, 0.032580457627773285, 0.0013600890524685383, 0.0035522766411304474, 0.028002582490444183, 0.01903546042740345, -0.03448059782385826], [-0.05217695236206055, -0.09171770513057709, -0.0936494991183281, -0.020978067070245743, 0.06523890048265457, 0.03654313087463379, -0.017683610320091248, 0.01480603963136673, -0.010268541052937508, 0.054924435913562775, -0.0675390213727951, 0.08717557787895203, -0.0154836755245924, 0.05452125892043114, -0.05898430570960045, -0.005603755358606577, 0.07005012780427933, -0.14365829527378082, -0.06226734444499016, -0.02398248389363289, 0.05079921334981918, 0.053428348153829575, 0.057224567979574203, 0.013064377009868622, -0.08888015151023865, -0.02725325897336006, 0.029437081888318062, 0.07878818362951279, -0.004918096587061882, -0.013721928931772709, -0.07559368014335632, 0.02852790057659149], [0.002498734975233674, -0.0025593959726393223, 0.05476520583033562, -0.016123009845614433, -0.032993901520967484, 0.07644357532262802, -0.0001760503218974918, 0.13554984331130981, -0.024543987587094307, 0.035106878727674484, 0.03140180557966232, -0.034112073481082916, 0.018267309293150902, 0.007884842343628407, -0.11294583231210709, 0.0014429166913032532, 0.019246650859713554, -0.03689137473702431, -0.02072076126933098, 0.022183280438184738, -0.02859715186059475, -0.04447619616985321, -0.03851120173931122, -0.03666339069604874, 0.02705536223948002, -0.05446043983101845, 0.040321458131074905, -0.025021903216838837, 0.022856704890727997, 0.05261018127202988, 0.05430176481604576, -0.007915214635431767], [0.025655100122094154, 0.0976591557264328, 0.20492376387119293, -0.11026928573846817, -0.09616116434335709, 0.07478365302085876, -0.02380826137959957, -0.04211300611495972, -0.1750558614730835, -0.13906121253967285, 0.2709290087223053, -0.21952176094055176, 0.07864394783973694, -0.1636589765548706, 0.20227117836475372, -0.24127261340618134, 0.22745701670646667, 0.06840576231479645, 0.18334324657917023, 0.11073796451091766, -0.059514082968235016, 0.21142272651195526, -0.004206192679703236, 0.11836949735879898, -0.01300089992582798, -0.09351518005132675, -0.037520039826631546, -0.03589755296707153, 0.17846794426441193, -0.15624754130840302, -0.013890206813812256, 0.11804305762052536], [0.03467705845832825, 0.036623794585466385, -0.02250683680176735, -0.07226843386888504, 0.002788703190162778, 0.13849090039730072, -0.037091560661792755, -0.07664435356855392, 0.0883844792842865, -0.08662761747837067, 0.13062313199043274, 0.008398525416851044, -0.01816459558904171, -0.04962507635354996, 0.11670894920825958, -6.313773337751627e-05, 0.05813669413328171, 0.021395545452833176, -0.01677967794239521, 0.06293606758117676, 0.031040465459227562, -0.11844135075807571, -0.00585051067173481, -0.0688505545258522, 0.10881637781858444, -0.08448978513479233, 0.05156698822975159, -0.03002198413014412, 0.010847382247447968, 0.040844131261110306, 0.05511615797877312, -0.022819675505161285], [-0.0176678653806448, -0.023547975346446037, -0.15553168952465057, -0.03652435913681984, 0.008503919467329979, -0.08829446882009506, -0.028630468994379044, -0.1452716439962387, 0.11360499262809753, -0.09060212224721909, -0.15136738121509552, 0.15143859386444092, -0.0028910303954035044, 0.12226874381303787, -0.14743781089782715, -0.008315522223711014, -0.010308605618774891, -0.009868260473012924, -0.006526031531393528, -0.09584526717662811, 0.14390194416046143, -0.10777995735406876, 0.013442469760775566, -0.03884335607290268, 0.08394657075405121, -0.004049216862767935, 0.047877758741378784, 0.09250134229660034, -0.05013167858123779, 0.0734289363026619, -0.011696116998791695, -0.013488495722413063], [0.17771165072917938, -0.16928228735923767, -0.15908312797546387, 0.11652067303657532, -0.007861010730266571, 0.10244787484407425, 0.07455439865589142, -0.2654857337474823, 0.23044730722904205, -0.01691536046564579, -0.08168226480484009, -0.010293981060385704, -0.02371779829263687, -0.0418761745095253, -0.24999041855335236, -0.08035643398761749, -0.031213557347655296, 0.06357255578041077, -0.14473550021648407, -0.05579709634184837, -0.05464882031083107, -0.21638749539852142, -0.0905265212059021, 0.01681486703455448, 0.010599907487630844, -0.12999679148197174, 0.09244810789823532, 0.11458323895931244, -0.19671377539634705, 0.023547757416963577, 0.11092627048492432, -0.1509280651807785], [0.006898452062159777, 0.08817902952432632, 0.006602528039366007, -0.021003907546401024, -0.04482150822877884, 0.0330011285841465, 0.06201132386922836, 0.02911417931318283, -0.11772456020116806, -0.035009823739528656, 0.13506966829299927, -0.1110866367816925, 0.013152914121747017, -0.10823886841535568, 0.17249959707260132, -0.043721336871385574, 0.10568179935216904, 0.13780266046524048, 0.1303078979253769, 0.007028897292912006, 0.0007749341311864555, 0.16403484344482422, -0.03458798676729202, 0.09179390966892242, -0.047845903784036636, -0.1364634484052658, -0.0671219453215599, -0.0077316053211688995, 0.129110187292099, -0.15843886137008667, -0.04710671305656433, 0.07761534303426743], [-0.11948654800653458, 0.14165009558200836, -0.11746156215667725, -0.014187535271048546, 0.003308368381112814, -0.020770477131009102, -0.04400485381484032, -0.11147671192884445, 0.04757237806916237, -0.011298760771751404, 0.11735337972640991, 0.02756505273282528, 0.000154208843014203, 0.04151192307472229, -0.03702668100595474, 0.0023356645833700895, 0.06704266369342804, -0.03452657163143158, 0.012497968971729279, -0.020151065662503242, 0.09464196115732193, -0.08977929502725601, 0.003161940723657608, -0.09399619698524475, 0.04596293717622757, -0.07156260311603546, 0.04266591742634773, 0.03331157937645912, 0.013233482837677002, 0.012223456986248493, 0.06045500189065933, 0.02261115424335003], [0.07831243425607681, 0.08989051729440689, 0.09402197599411011, 0.07260733842849731, 0.07150591909885406, 0.01734907366335392, -0.10644408315420151, -0.09807693958282471, 0.05600596219301224, 0.14105713367462158, -0.06756199151277542, -0.06604323536157608, -0.12092552334070206, 0.06171046569943428, -0.03167078644037247, -0.1043969914317131, -0.01830529049038887, 0.11133360117673874, 0.05742299184203148, -0.1169111505150795, 0.06941673159599304, -0.08970444649457932, 0.026697834953665733, -0.107547827064991, 0.008899547159671783, -0.08493418246507645, -0.11608875542879105, 0.050365615636110306, -0.08064678311347961, -0.10538624972105026, 0.02083221822977066, -0.12548303604125977], [0.32578912377357483, -0.21689051389694214, 0.1358163058757782, 0.022802038118243217, 0.1195024847984314, 0.14608696103096008, -0.03508687764406204, -0.13765284419059753, -0.04263472929596901, 0.06916910409927368, -0.19930468499660492, 0.14818790555000305, -0.11024053394794464, 0.07618855684995651, 0.06456434726715088, -0.09589257836341858, -0.2950325310230255, -0.0019515519961714745, 0.0970747321844101, 0.18887080252170563, -0.1661740094423294, 0.12914438545703888, 0.03432302922010422, -0.13314828276634216, -0.07690714299678802, 0.13594317436218262, -0.12488728016614914, -0.10263912379741669, -0.11605199426412582, -0.04896743968129158, -0.1350182592868805, -0.07722850888967514], [-0.02071073278784752, 0.008410651236772537, 0.01426146924495697, -0.008904282003641129, -0.024469513446092606, 0.04758162423968315, 0.00682110758498311, -0.008120936341583729, 0.020887425169348717, -0.012393157929182053, 0.01747063547372818, -0.005408952012658119, 0.0022448680829256773, 0.0779956504702568, -0.0631641149520874, -0.00858916062861681, 0.009515231475234032, -0.0465644896030426, -0.017473042011260986, 0.020153488963842392, 0.006548556499183178, -0.07424937188625336, -0.0062085711397230625, -0.06620271503925323, 0.08671943098306656, -0.08194658160209656, 0.08970142900943756, 0.013203484937548637, -0.0014064880087971687, 0.037249915301799774, 0.08792649954557419, -0.029567327350378036], [0.07093756645917892, -0.14554312825202942, 0.026179127395153046, -0.017363974824547768, -0.017522452399134636, 0.1430898755788803, 0.017055708914995193, -0.22640831768512726, 0.15641093254089355, 0.0018415817758068442, -0.2210591435432434, 0.06035294756293297, -0.045838646590709686, 0.22445827722549438, -0.2717650830745697, 0.031169366091489792, -0.02559053897857666, -0.1778416782617569, -0.09307984262704849, 0.07442110031843185, -0.03298483416438103, -0.2060815542936325, -0.05849599838256836, -0.26152926683425903, 0.14048829674720764, -0.10290636867284775, 0.22526344656944275, 0.052430521696805954, -0.08065451681613922, 0.09913389384746552, 0.20843277871608734, -0.08092819899320602], [-0.0030501368455588818, -0.06719686090946198, -0.06417854875326157, -0.04221969097852707, -0.021449651569128036, -0.1035412922501564, -0.058854904025793076, -0.007935590110719204, -0.05006041377782822, 0.07521294802427292, -0.037235163152217865, -0.009132055565714836, 0.02890276350080967, -0.017028741538524628, 0.031111720949411392, -0.016535472124814987, -0.021004173904657364, -0.10630737245082855, 0.05480843409895897, 0.02557043917477131, 0.03634755685925484, -0.1649617850780487, 0.005990722216665745, -0.10591614991426468, -0.11584147065877914, 0.05440631881356239, -0.15549436211585999, -0.08283490687608719, 0.06998525559902191, 0.053119055926799774, 0.010227715596556664, 0.0326419360935688], [0.028731251135468483, -0.13774971663951874, -0.15673182904720306, -0.02335912548005581, 0.02078554965555668, -0.1470574587583542, -0.08414355665445328, -0.05348629131913185, 0.18098028004169464, 0.01149185374379158, 0.04151667654514313, 0.10684148967266083, 0.013654759153723717, -0.06313028931617737, 0.08859679847955704, -0.0020316278096288443, -0.03169764205813408, 0.09152178466320038, -0.026776211336255074, -0.018712328746914864, -0.03760511055588722, 0.09401637315750122, 0.05124345049262047, -0.11860595643520355, 0.0758972242474556, -0.046753332018852234, -0.04077354073524475, 0.07915329933166504, -0.06463722139596939, 0.09498613327741623, -0.0974155142903328, 0.022577153518795967], [-0.21152234077453613, 0.17556364834308624, -0.1873338371515274, -0.019282212480902672, -0.005764874629676342, 0.02003505639731884, -0.09833381325006485, -0.049343470484018326, 0.10138135403394699, 0.03264004737138748, 0.08697187900543213, 0.08742193877696991, 0.015439209528267384, 0.011645139195024967, -0.0243227481842041, -0.0637187510728836, 0.12378329038619995, -0.0012618275359272957, 0.015071242116391659, 0.021097062155604362, 0.1875845491886139, -0.007332125678658485, 0.049488864839076996, -0.05158813297748566, 0.038850802928209305, -0.08186463266611099, 0.040675412863492966, 0.009454903192818165, 0.062087368220090866, 0.027449317276477814, 0.036313608288764954, 0.06432333588600159], [-0.18180453777313232, 0.04495483264327049, 0.0425880029797554, -0.0686502531170845, -0.042017851024866104, 0.21686312556266785, -0.047390785068273544, 0.17493854463100433, -0.028799915686249733, 0.057996053248643875, 0.10397457331418991, -0.07934647053480148, 0.04978778958320618, 0.11058954149484634, -0.11553094536066055, -0.10668051242828369, 0.1451219618320465, -0.08348126709461212, 0.06660010665655136, 0.11725940555334091, 0.06163932383060455, 0.10590909421443939, 0.0224546417593956, -0.11351553350687027, 0.1281680166721344, -0.17822769284248352, 0.22931519150733948, -0.025950081646442413, 0.10107877105474472, 0.015232730656862259, 0.2513890564441681, 0.07952161878347397], [0.04337587207555771, -0.01883712410926819, -0.06432034075260162, -0.0708676427602768, 0.04250498488545418, -0.012573041953146458, 0.05513385310769081, 0.014674118719995022, -0.024976754561066628, -0.1060999408364296, -0.040187276899814606, -0.1047901138663292, 0.029149625450372696, -0.07606524229049683, 0.016537673771381378, -0.05209709703922272, -0.02623732201755047, 0.04786526784300804, -0.04493855684995651, -0.00810705404728651, 0.06498676538467407, 0.022729098796844482, 0.023900438100099564, -0.02711751125752926, 0.06581083685159683, -0.042201653122901917, -0.04007773473858833, -0.01277652196586132, -0.06787687540054321, -0.04201679304242134, -0.01664910651743412, 0.07421694695949554], [0.011436243541538715, 0.09131290018558502, 0.006246946752071381, 0.02480684593319893, 0.07091101258993149, 0.014924447983503342, -0.020900296047329903, 0.03055441938340664, -0.028392205014824867, 0.03753768280148506, 0.07527248561382294, 0.019658422097563744, 0.0011616641422733665, 0.05977699160575867, -0.08296976238489151, -0.0015399749390780926, 0.08374171704053879, 0.01295427605509758, -0.012045948766171932, -0.032294027507305145, 0.047830138355493546, -0.020191367715597153, 0.039359159767627716, -0.09693615883588791, 0.03430541232228279, -0.14086759090423584, 0.052510038018226624, -0.0386212021112442, 0.008635354228317738, 0.04511262848973274, 0.07171132415533066, 0.02204061672091484], [0.07500424236059189, 0.06495461612939835, 0.031127844005823135, 0.041399646550416946, 0.0585181824862957, -0.11492294818162918, -0.03703552484512329, -0.07161016017198563, 0.1500375121831894, -0.03612187132239342, -0.07449420541524887, -0.06826852262020111, 0.00791662372648716, 0.09313300251960754, 0.023959774523973465, -0.03739765286445618, -0.14982955157756805, -0.011360164731740952, -0.02198856696486473, 0.11830221116542816, 0.08526598662137985, 0.036402687430381775, 0.03373585268855095, -0.09035591036081314, -0.022070785984396935, 0.15949131548404694, -0.17717482149600983, 0.07783514261245728, 0.034917112439870834, 0.05818701162934303, -0.23214484751224518, -0.07575719058513641], [0.0521252304315567, -0.07123104482889175, -0.010137862525880337, -0.018201597034931183, 0.03182703256607056, -0.007534604053944349, -0.057377345860004425, 0.006329352036118507, 0.07095682621002197, 0.06639790534973145, 0.054870713502168655, 0.010475747287273407, -0.09981992840766907, 0.10617133975028992, 0.14399965107440948, 0.07981061935424805, -0.026261406019330025, 0.11329476535320282, -0.05539067089557648, -0.04515684396028519, 0.04300966113805771, -0.18814505636692047, -0.04225772246718407, 0.10701367259025574, -0.15502998232841492, 0.11063322424888611, -0.11448774486780167, 0.14159056544303894, 0.06258699297904968, -0.1347464919090271, -0.22083207964897156, -0.09575401246547699], [0.1049300953745842, -0.05372564122080803, -0.06404765695333481, 0.017638688907027245, 0.09926643967628479, -0.17937369644641876, -0.07794710993766785, -0.10029240697622299, 0.14295195043087006, 0.033592142164707184, -0.032312843948602676, -0.04878966510295868, 0.00916309840977192, 0.04027191549539566, 0.07210466265678406, 0.021420687437057495, -0.06167808175086975, 0.029357727617025375, 0.04624104127287865, -0.08497092127799988, -0.02685711719095707, 0.022015281021595, 0.029114926233887672, 0.08007637411355972, -0.06728734821081161, 0.1816474050283432, -0.22538234293460846, 0.14907100796699524, -0.008194283582270145, 0.0075509496964514256, -0.17167432606220245, -0.046668294817209244], [0.23809774219989777, -0.09365430474281311, 0.04205843061208725, -0.03322179988026619, -0.03491130843758583, 0.009838812984526157, 0.07148176431655884, 0.007619147188961506, -0.0750361904501915, -0.02639126032590866, -0.0721014067530632, -0.052038732916116714, -0.059290871024131775, -0.0733383446931839, 0.09963658452033997, -0.059392668306827545, -0.16932067275047302, -0.017407989129424095, 0.01160514261573553, 0.0502605065703392, -0.12219742685556412, -0.005517217330634594, -0.051478415727615356, 0.058975934982299805, -0.06092162802815437, 0.048724643886089325, -0.04688618332147598, -0.041149966418743134, 0.05210427939891815, -0.03438423201441765, -0.1380801945924759, 0.041973911225795746], [-0.026333121582865715, 0.06893401592969894, -0.0026578246615827084, 0.011876928620040417, 0.06991007924079895, 0.03424397483468056, -0.02644999697804451, -0.035257622599601746, 0.06525900959968567, 0.030899688601493835, 0.03464791923761368, -0.028086690232157707, 0.007572873495519161, 0.11869383603334427, 0.01644592173397541, 0.02090754173696041, 0.018542004749178886, -0.01496955007314682, -0.0001993300684262067, 0.03100987710058689, 0.03855174407362938, -0.09473002701997757, 0.027345651760697365, -0.09702400118112564, 0.09159709513187408, -0.08811978250741959, -0.03200889006257057, 0.1087758019566536, -0.018674122169613838, -0.0023250682279467583, -0.005733462981879711, 0.003580540418624878], [0.04909801110625267, -0.1347263753414154, -0.026490377262234688, 0.012919912114739418, 0.0709448978304863, 0.03967393934726715, -0.04409259557723999, -0.03819730132818222, 0.040083833038806915, -0.03247006610035896, -0.10132414102554321, 0.07704883068799973, -8.262676419690251e-05, 0.07128843665122986, -0.10882795602083206, -0.016515299677848816, -0.033372096717357635, -0.0687907263636589, -0.06533931195735931, -0.01156944315880537, -0.03388014808297157, -0.15811337530612946, 0.01000950112938881, -0.03615457937121391, 0.06264658272266388, -0.07627726346254349, 0.05074795335531235, 0.032254599034786224, 0.022067120298743248, 0.02300352416932583, 0.04590962454676628, 0.023179810494184494], [0.1330188363790512, -0.032581135630607605, -0.04587254673242569, 0.031096315011382103, 0.13458159565925598, -0.011911965906620026, -0.07246977835893631, -0.07045749574899673, 0.04550784453749657, -0.021253563463687897, -0.050311971455812454, 0.036882925778627396, -0.017893226817250252, -0.0534229502081871, 0.08191466331481934, 0.041598446667194366, -0.12096835672855377, 0.0881485790014267, -0.07303570955991745, -0.10379329323768616, -0.021748026832938194, -0.1759198158979416, 0.022553736343979836, 0.093610979616642, -0.12386869639158249, 0.12054102122783661, -0.0072145056910812855, 0.015639271587133408, -0.050679609179496765, -0.025133471935987473, -0.07052424550056458, 0.07351454347372055], [0.19670549035072327, -0.13174870610237122, -0.03056923672556877, -0.014451172202825546, 0.08060100674629211, -0.1170356273651123, -0.12969890236854553, -0.043798405677080154, 0.1175186038017273, 0.04233492910861969, -0.22058410942554474, 0.01453904528170824, -0.06705805659294128, -0.15444687008857727, 0.07177701592445374, 0.03496078774333, -0.11890649795532227, -0.09938730299472809, -0.010513588786125183, -0.12085586041212082, 0.045333970338106155, -0.17369869351387024, 0.0331447459757328, 0.12432573735713959, -0.12595990300178528, 0.0665641650557518, -0.10848923772573471, 0.12619836628437042, -0.07910299301147461, 0.04637858644127846, 0.03895699605345726, -0.1118362620472908], [-0.02814803086221218, 0.01613333448767662, -0.16162051260471344, -0.008668513037264347, 0.03817356005311012, -0.038089051842689514, -0.020336749032139778, -0.035551197826862335, 0.010625087656080723, -0.029039835557341576, -0.09394229203462601, 0.04539063572883606, -0.027812529355287552, -0.010126063600182533, -0.1279313862323761, -0.026165932416915894, 0.06086992472410202, -0.11682772636413574, -0.0001783794432412833, 0.003859808901324868, 0.060396455228328705, -0.051171381026506424, -0.021638555452227592, 0.06057845801115036, -0.05412014201283455, -0.044578149914741516, 0.045468393713235855, 0.036335378885269165, 0.046741239726543427, -0.03589445725083351, 0.1042461097240448, -0.01701144129037857], [-0.10594482719898224, -0.05470506101846695, -0.053043995052576065, -0.09194118529558182, -0.043911151587963104, 0.165217325091362, 0.00976766087114811, 0.08942818641662598, 0.004749435931444168, 0.0616094172000885, 0.14532868564128876, -0.010379950515925884, 0.0647478923201561, 0.051197782158851624, -0.12318090349435806, 0.03914204239845276, 0.19459831714630127, -0.08601958304643631, 0.07180601358413696, -0.0014945423463359475, 0.027606260031461716, 0.07160317152738571, -0.03426189720630646, -0.08130555599927902, 0.09222833067178726, -0.04502711072564125, 0.17189283668994904, -0.09038402885198593, 0.1810326725244522, -0.0032924781553447247, 0.09485592693090439, 0.10136838257312775], [0.3649683892726898, -0.25296229124069214, 0.12273809313774109, 0.04220350459218025, -0.1734471321105957, 0.0883994773030281, 0.23662389814853668, 0.19329866766929626, -0.0577944777905941, -0.06642771512269974, -0.1992647647857666, 0.13678790628910065, 0.027869274839758873, -0.01206053327769041, -0.10398925840854645, -0.16604144871234894, -0.15445636212825775, -0.0343877375125885, -0.07595258951187134, 0.19958388805389404, -0.2659914493560791, 0.09512022882699966, -0.11857890337705612, -0.007252353709191084, -0.009728925302624702, 0.17077121138572693, 0.04667496681213379, -0.25216665863990784, 0.06443319469690323, -0.0989474207162857, 0.02396479621529579, -0.07637675851583481], [-0.12880410254001617, 0.22822460532188416, -0.11782658100128174, 0.003041447838768363, -0.04411092773079872, -0.11860152333974838, 0.08116813004016876, 0.13495364785194397, -0.1488783210515976, 0.0031877560541033745, 0.35840922594070435, 0.0855913981795311, 0.2003907412290573, -0.27387750148773193, 0.25727275013923645, -0.20383495092391968, 0.2288479208946228, 0.23749983310699463, 0.2960752844810486, -0.06006317585706711, 0.07097246497869492, 0.44303098320961, 0.10005839914083481, 0.2852307856082916, -0.16647611558437347, -0.14054541289806366, -0.13908067345619202, -0.05955403298139572, 0.3998800218105316, -0.21599160134792328, -0.06636600941419601, 0.3109797239303589], [-0.0489831380546093, 0.04385068640112877, 0.0225240346044302, 0.03275715932250023, -0.0019275054801255465, 0.014110609889030457, -0.01018559094518423, 0.0077249943278729916, -0.0412142314016819, 0.0054185702465474606, -0.04641120880842209, 0.004008444491773844, 0.008622956462204456, 0.07808707654476166, -0.07323069870471954, 0.003267237450927496, 0.02127774991095066, -0.01262090727686882, -0.008080092258751392, 0.015134244225919247, 0.010991444811224937, -0.04034676402807236, -0.0011057947995141149, -0.07953817397356033, 0.05594545975327492, -0.03969224914908409, 0.010245071724057198, -0.021055446937680244, -0.02016952820122242, 0.033553797751665115, 0.017417050898075104, -0.003945647273212671], [-0.024754598736763, 0.04541020467877388, -0.01517442800104618, -0.003802187042310834, -0.024185482412576675, 0.009031412191689014, -0.04509425535798073, 0.023491671308875084, 0.039804887026548386, 0.027274183928966522, 0.0866314023733139, 0.0014086971059441566, 0.006113200914114714, 0.02871408686041832, 0.0016205860301852226, 0.010155105032026768, 0.04309138283133507, -0.026899900287389755, -0.021590963006019592, -0.009006314910948277, 0.05801697447896004, -0.0907881036400795, 0.025225285440683365, -0.05004090070724487, 0.09181102365255356, -0.036541812121868134, 0.03069501742720604, 0.03255179151892662, -0.019499734044075012, 0.003880581585690379, 0.051735784858465195, 0.041469756513834], [-0.055407293140888214, 0.018124185502529144, -0.10074127465486526, -0.05178467556834221, 0.046421121805906296, -0.05926523730158806, 0.07151113450527191, 0.11010544002056122, 0.001785574946552515, 0.036234766244888306, 0.06977501511573792, 0.022062214091420174, 0.04945671930909157, -0.06036870554089546, 0.21134358644485474, -0.03044353798031807, 0.13166020810604095, 0.04099702462553978, 0.041772447526454926, -0.026239333674311638, 0.058844443410634995, 0.08750301599502563, 0.05769147723913193, 0.23863361775875092, -0.14608202874660492, 0.08391253650188446, -0.08173438161611557, -0.08957327157258987, 0.13670527935028076, -0.08221126347780228, -0.21442081034183502, 0.19837044179439545], [-0.016418471932411194, 0.01228389237076044, 0.04043599218130112, -0.03034929744899273, -0.03875148668885231, 0.06047779321670532, 0.010219737887382507, 0.08047180622816086, -0.06294585764408112, 0.022755160927772522, -0.05461834371089935, -0.018537012860178947, 0.0187295600771904, 0.042477596551179886, -0.1252303570508957, 0.017444713041186333, 0.019333476200699806, -0.007972437888383865, -0.03249921277165413, 0.0496453121304512, -0.018086586147546768, 0.0014149139169603586, -0.045058656483888626, -0.06261685490608215, 0.03580174595117569, -0.038215912878513336, 0.012441961094737053, -0.001906724413856864, 0.03207382187247276, 0.04802718758583069, 0.027262406423687935, -0.009875339455902576], [0.5503761768341064, -0.4836697280406952, 0.506005048751831, 0.08338067680597305, -0.20563271641731262, 0.516163170337677, 0.3555561602115631, 0.05234375223517418, -0.2521384358406067, -0.16355684399604797, -0.2842804193496704, -0.1184731274843216, 0.02842782251536846, -0.07902470231056213, -0.11484244465827942, -0.2415684461593628, -0.25386983156204224, -0.08967232704162598, -0.10654985904693604, 0.45163246989250183, -0.4088233411312103, 0.18587447702884674, -0.1333623081445694, 0.16016507148742676, -0.06415735930204391, -0.07067467272281647, 0.29907292127609253, -0.3377969264984131, -0.032030366361141205, 0.12940891087055206, 0.17532889544963837, -0.08557480573654175], [0.1498980075120926, -0.0981249287724495, 0.038945842534303665, -0.07398867607116699, -0.043619122356176376, 0.15561796724796295, 0.027485037222504616, -0.06507813930511475, -0.03484120965003967, -0.0894705206155777, -0.005128166638314724, -0.004684176295995712, -0.007803543005138636, 0.04736588895320892, 0.11256426572799683, -0.08254789561033249, 0.019099293276667595, -0.09219162911176682, -0.048583902418613434, 0.12042447924613953, 0.008310273289680481, -0.09272530674934387, -0.016519594937562943, 0.0868731141090393, 0.1245841532945633, -0.05349186807870865, -0.029433008283376694, 0.02859111689031124, -0.022571060806512833, -0.06085296347737312, 0.1097036674618721, -0.046592697501182556], [0.009913669899106026, -0.0675620585680008, -0.14449062943458557, -0.02583448961377144, 0.04286931827664375, -0.07202423363924026, -0.013087051920592785, -0.14292824268341064, 0.14997552335262299, -0.08385515213012695, -0.1641726791858673, 0.17011919617652893, -0.0003683440154418349, 0.03696043789386749, -0.12863126397132874, -0.016380922868847847, -0.019447781145572662, 0.054426684975624084, -0.040041904896497726, -0.0840432196855545, 0.10332704335451126, -0.13705523312091827, 0.002965441672131419, -0.11518069356679916, 0.06949196010828018, -0.08004375547170639, 0.042797137051820755, 0.0749850645661354, -0.03481438010931015, 0.0495031401515007, 0.07242803275585175, 0.015622423030436039], [0.3873851001262665, -0.32521554827690125, 0.03370995447039604, 0.11820605397224426, 0.03520026430487633, 0.1695994734764099, 0.18678703904151917, 0.07698250561952591, 0.02609114535152912, -0.06515426188707352, -0.3053264915943146, 0.08241336047649384, -0.1223222017288208, -0.023298606276512146, -0.06854267418384552, -0.037861526012420654, -0.27194419503211975, -0.1620640754699707, -0.026965731754899025, 0.10044845193624496, -0.182254821062088, 0.05710308626294136, -0.187404066324234, -0.13586360216140747, 0.1332577019929886, -0.022455433383584023, 0.17257358133792877, 0.008028538897633553, -0.029968377202749252, 0.07994697988033295, 0.18486803770065308, -0.054569412022829056], [0.06634458899497986, -0.025512943044304848, -0.038638655096292496, -0.007672243285924196, 0.010792979039251804, 0.07040275633335114, 0.07427205890417099, -0.032005924731492996, -0.0668419748544693, -0.06981057673692703, 0.022125396877527237, 0.014202575199306011, -0.021497661247849464, -0.019622759893536568, 0.14860522747039795, -0.009877271018922329, -0.02554822899401188, 0.07786749303340912, 0.10624440014362335, 0.04860634356737137, -0.07729384303092957, 0.1438036561012268, -0.027994338423013687, 0.016554739326238632, 0.014995220117270947, -0.16636313498020172, -0.04773019626736641, 0.08500675112009048, 0.0794156938791275, -0.05872469022870064, -0.02016732469201088, 0.054081786423921585], [-0.07991836220026016, 0.10760971158742905, -0.08795271813869476, -0.009442337788641453, -0.00621793931350112, -0.027823137119412422, -0.027847273275256157, -0.07741249352693558, 0.03360230475664139, -0.009719952940940857, 0.08464949578046799, 0.017926177009940147, -0.0027596314903348684, 0.018466508015990257, -0.027796000242233276, 0.0011979335686191916, 0.04548593610525131, -0.029099993407726288, 0.007381335366517305, -0.011858192272484303, 0.07259868085384369, -0.06079225242137909, 0.0015670352149754763, -0.05549550801515579, 0.04348970577120781, -0.04037890210747719, 0.0018809204921126366, 0.020932231098413467, 0.014814639464020729, -0.0021896339021623135, 0.03467564284801483, 0.017399175092577934], [0.05524018779397011, -0.0004855584120377898, -0.05983663722872734, 0.06318553537130356, 0.05873071774840355, -0.15599703788757324, 0.11204122006893158, 0.027185197919607162, 0.05470825731754303, 0.05603259801864624, -0.094932422041893, 0.02593407593667507, 0.10515767335891724, -0.2806430459022522, 0.1063058078289032, 0.09430214762687683, 0.04614713042974472, 0.11654675751924515, 0.1582505851984024, -0.1324828565120697, 0.08498841524124146, 0.04154755175113678, -0.009635095484554768, 0.2865191400051117, -0.2012912482023239, 0.2614923417568207, -0.19754110276699066, 0.004772713873535395, -0.019589267671108246, -0.25102394819259644, -0.10026928037405014, 0.1573929488658905], [0.48422470688819885, 0.014296451583504677, -0.012614654377102852, 0.045054804533720016, 0.05408341437578201, -0.12162375450134277, 0.2923886775970459, 0.07231589406728745, -0.09930900484323502, -0.011195022612810135, -0.08212483674287796, -0.08684232831001282, -0.015652965754270554, -0.1611391305923462, 0.26358696818351746, -0.08729034662246704, -0.05825372412800789, 0.22751669585704803, 0.24480096995830536, -0.10821424424648285, -0.2004094421863556, 0.26386362314224243, -0.10650128126144409, 0.1463298797607422, -0.25354689359664917, 0.18539541959762573, -0.1915520280599594, -0.19798597693443298, 0.014398243278265, -0.17539411783218384, -0.3158625364303589, 0.050940271466970444], [-0.02145140804350376, 0.017166122794151306, -0.006677892059087753, -0.0071863955818116665, -0.00043392967199906707, 0.021889256313443184, 0.0010996796190738678, -0.02043657936155796, 0.00388418510556221, -0.01219508983194828, 0.03526182845234871, -0.0032238755375146866, 0.0034820137079805136, 0.04742106422781944, -0.051223158836364746, -0.006642334628850222, 0.012481689453125, -0.05702858418226242, -0.012540306895971298, 0.011034662835299969, 0.014068972319364548, -0.03181684389710426, -0.0053003402426838875, -0.04130299761891365, 0.051771655678749084, -0.047438789159059525, 0.05137224867939949, 0.007783799432218075, -0.0054014637134969234, 0.017316065728664398, 0.0605800524353981, -0.0005987521726638079], [0.08145450800657272, -0.10132255405187607, 0.11280308663845062, -0.052333518862724304, -0.047182779759168625, 0.16470009088516235, 0.05030672252178192, -0.09689264744520187, 0.023777199909090996, 0.008479790762066841, -0.11157593131065369, -0.0511183924973011, -0.06606373190879822, 0.1925835907459259, -0.19742676615715027, 0.020110130310058594, 0.022229453548789024, -0.1919107735157013, -0.05590353533625603, 0.15558622777462006, -0.050378795713186264, -0.17542104423046112, -0.12787434458732605, -0.20570789277553558, 0.1307041347026825, -0.061527516692876816, 0.1610010266304016, -0.025693733245134354, -0.027778219431638718, 0.06060022860765457, 0.1357046365737915, -0.03488168492913246], [0.008268416859209538, 0.0678827166557312, -0.14068903028964996, -0.0037056775763630867, 0.0591437891125679, -0.18689881265163422, -0.0516473613679409, 0.15033209323883057, 0.10150531679391861, -0.05344641953706741, 0.05711155757308006, 0.005253669805824757, -0.007804057095199823, -0.1410038322210312, 0.1250246912240982, -0.005658343434333801, 0.05384141206741333, 0.1556714028120041, 0.02154478244483471, -0.07499238848686218, -0.0012230081483721733, 0.10299897938966751, 0.0497015044093132, 0.2084416002035141, -0.09890461713075638, 0.1094481572508812, -0.17927762866020203, -0.023980719968676567, 0.06378002464771271, -0.06032644212245941, -0.09128841012716293, -0.08383700251579285], [0.04442201927304268, 0.011980109848082066, -0.16069351136684418, 0.0061691394075751305, 0.04990058392286301, 0.027669770643115044, -0.05914892628788948, -0.04992130398750305, 0.049866870045661926, 0.0030032838694751263, 0.006250273901969194, 0.01226345356553793, 0.0694853886961937, 0.05095240846276283, -0.029235776513814926, -0.01443201769143343, 0.009219775907695293, 0.07039006799459457, -0.04218578338623047, -0.050191283226013184, -0.10978787392377853, 0.01018504798412323, 0.06380658596754074, 0.034173157066106796, 0.03471793979406357, 0.0021606467198580503, -0.05342283099889755, 0.043605733662843704, 0.07543358951807022, 0.06905472278594971, -0.09458675980567932, 0.10578341037034988], [-0.19741947948932648, 0.19039683043956757, -0.09821629524230957, -0.03411106765270233, -0.001825813902541995, 0.03615264222025871, -0.0664459764957428, -0.04873860999941826, 0.010372607037425041, 0.019533319398760796, 0.12076371908187866, -0.02821998856961727, 0.011356747709214687, -0.012794667854905128, 0.12967555224895477, 0.028357967734336853, 0.11351660639047623, 0.09070583432912827, -0.004235801286995411, 0.048936568200588226, 0.17407090961933136, -0.08789945393800735, 0.005334231071174145, 0.07488267868757248, 0.065017931163311, -0.043636344373226166, 0.008313173428177834, 0.07818933576345444, 0.0628216415643692, -0.01665986143052578, -0.013797929510474205, 0.03136692941188812], [-0.22893878817558289, 0.12254679948091507, -0.07420956343412399, -0.07387605309486389, -0.0024487453047186136, 0.02496500499546528, -0.11105939000844955, 0.11477982252836227, -0.05565888062119484, 0.03233017772436142, 0.1408250629901886, -0.07226703315973282, 0.09215661138296127, -0.06745956838130951, 0.03752248361706734, -0.10518830269575119, 0.22342580556869507, -0.02883976697921753, 0.13071781396865845, -0.00527244433760643, 0.19203698635101318, -0.03844595327973366, 0.0729173943400383, -0.053065575659275055, 0.08969298005104065, -0.05796830728650093, 0.00833193026483059, -0.03902805596590042, 0.09334833174943924, -0.048351600766181946, 0.08947481215000153, 0.13885696232318878], [0.14075009524822235, -0.04500623792409897, 0.06581862270832062, -0.06993583589792252, -0.01580641232430935, -0.14639487862586975, -0.0646715983748436, -0.12007966637611389, 0.002882227301597595, -0.10801520198583603, 0.12305516749620438, -0.12895049154758453, -0.05294635519385338, 0.0318048894405365, 0.14255818724632263, 0.033189885318279266, -0.048808503895998, 0.11274604499340057, -0.030703606083989143, 0.019402839243412018, -0.006689798086881638, -0.1359521597623825, 0.04213273897767067, 0.09324021637439728, -0.16415977478027344, -0.028471339493989944, -0.23139335215091705, 0.1431667059659958, -0.05697125941514969, 0.05561814457178116, -0.07914625108242035, -0.03917989134788513], [0.029849624261260033, 0.08977095782756805, 0.012896766886115074, 0.026341363787651062, 0.0004661420825868845, 0.0012673728633672, 0.008223291486501694, 0.026986319571733475, 0.034979112446308136, 0.04109217971563339, 0.027995076030492783, 0.028663281351327896, -0.005911488085985184, 0.029235903173685074, -0.00824736151844263, 0.008534107357263565, 0.07642562687397003, 0.003616760950535536, 0.00192948617041111, -0.03537485748529434, 0.07453690469264984, -0.03460951894521713, 0.032789748162031174, -0.10778789222240448, 0.05822466313838959, -0.09052146971225739, -0.022042397409677505, 0.07177210599184036, 0.023701762780547142, -0.017397545278072357, 0.001346358796581626, 0.005562689621001482], [0.1700618863105774, 0.08546923100948334, -0.14210548996925354, 0.04123985022306442, -0.04488896578550339, -0.12445516884326935, -0.08717936277389526, 0.1328480839729309, -0.13734088838100433, -0.050109680742025375, 0.023976102471351624, 0.02301786281168461, -0.05889878794550896, -0.2787522077560425, 0.33228886127471924, 0.007584074512124062, -0.03448085859417915, 0.080343097448349, 0.06825622916221619, -0.040384214371442795, 0.06178176403045654, 0.17398600280284882, 0.060229819267988205, 0.29272788763046265, -0.20423004031181335, 0.055836115032434464, -0.31419211626052856, 0.09093856066465378, -0.031136011704802513, -0.09230856597423553, -0.34664997458457947, 0.17803044617176056], [0.014209715649485588, 0.009498735889792442, -0.2623738944530487, 0.025605330243706703, 0.1358993947505951, -0.1275763064622879, -0.04671581834554672, 0.03600992262363434, 0.03060859441757202, 0.0006815375527366996, 0.12302746623754501, -0.03489309549331665, -0.019472355023026466, -0.13910254836082458, 0.19322237372398376, 0.059445496648550034, -0.0021271253935992718, 0.2671709954738617, 0.0030388417653739452, -0.22944919764995575, 0.13535869121551514, 0.011526666581630707, 0.055992815643548965, 0.284260094165802, -0.1323164403438568, 0.1661211997270584, -0.10531901568174362, 0.1132383942604065, 0.0961947962641716, -0.028704378753900528, -0.09943728148937225, 0.1330665647983551], [0.024669375270605087, 0.14435330033302307, -0.21458107233047485, 0.05581467226147652, 0.19036972522735596, -0.3853638768196106, -0.055211141705513, -0.12840859591960907, 0.020063232630491257, 0.021686501801013947, 0.12820199131965637, -0.02864709682762623, 0.03165853023529053, -0.23106755316257477, 0.3011249899864197, 0.08753222972154617, -0.06674610078334808, 0.18696211278438568, 0.1241871789097786, -0.21997854113578796, 0.06476164609193802, 0.02671627700328827, 0.09102798253297806, 0.28800660371780396, -0.3007722496986389, 0.23652127385139465, -0.3056051731109619, 0.16935591399669647, 0.037921905517578125, -0.17460891604423523, -0.4789097011089325, 0.160292387008667], [0.17234782874584198, 0.03741060197353363, -0.08591777831315994, -0.038251571357250214, -0.004172295797616243, -0.13657206296920776, 0.09546049684286118, 0.10192491859197617, -0.18912343680858612, -0.11183071881532669, 0.04499005153775215, -0.08579812198877335, 0.06044377014040947, -0.18377262353897095, 0.19441813230514526, -0.030333125963807106, -0.07594794034957886, 0.17391301691532135, 0.15348654985427856, -0.09489178657531738, -0.10371055454015732, 0.18236811459064484, 0.03113524615764618, 0.2825002074241638, -0.21371610462665558, 0.2422747164964676, -0.1934315413236618, -0.09512543678283691, 0.16423316299915314, -0.13489510118961334, -0.23666153848171234, 0.11186544597148895], [-0.01551880594342947, 0.07866043597459793, -0.0005281438934616745, 0.009783701039850712, 0.07120062410831451, -0.010269798338413239, -0.017073357477784157, -0.07578906416893005, 0.0596897155046463, 0.022023577243089676, 0.05307051166892052, -0.04785829409956932, -0.0032667142804712057, 0.08389212936162949, 0.02533070184290409, 0.01843038573861122, 0.03556402027606964, 0.019132662564516068, 0.012037544511258602, -0.010691722854971886, 0.08680763095617294, -0.02128748781979084, -0.016936518251895905, -0.05143456533551216, 0.03967753425240517, -0.009602895937860012, -0.05516909435391426, 0.10000959783792496, -0.015018540434539318, 0.011969811283051968, 0.0029465332627296448, -0.002258411142975092], [0.09833875298500061, -0.09015171974897385, 0.014061459340155125, 0.012324836105108261, 0.08651699870824814, 0.07163486629724503, 0.03513268753886223, -0.04993899539113045, 0.0366198867559433, 0.0019890235271304846, -0.0807342678308487, 0.009728631936013699, 0.02414744161069393, -0.03834701329469681, -0.11680901050567627, -0.028039680793881416, -0.051587190479040146, 0.05062044784426689, -0.07199938595294952, -0.002633503871038556, -0.06813360750675201, -0.03213994577527046, 0.04271523281931877, 0.018601659685373306, 0.06102431192994118, 0.013208474032580853, -0.03359005227684975, -0.0052476064302027225, -0.055496808141469955, -0.028734538704156876, -0.08083077520132065, 0.04540195316076279], [0.12839195132255554, -0.0005560882273130119, -0.14534489810466766, 0.027330925688147545, 0.037085555493831635, -0.135641410946846, -0.04317210242152214, -0.05118991434574127, 0.03807276114821434, 0.04777401313185692, -0.1297498196363449, 0.046856533735990524, 0.0621720626950264, -0.06016003340482712, 0.21003711223602295, 0.03627864271402359, -0.04809019714593887, 0.043971940875053406, -0.03235350549221039, -0.17459625005722046, 0.03690757974982262, -0.0781828984618187, 0.08057311922311783, 0.11777140200138092, -0.057707786560058594, 0.1423412710428238, -0.2354322373867035, 0.05902370065450668, -0.022131359204649925, -0.09305649250745773, -0.14776434004306793, 0.05768738314509392], [0.15180908143520355, 0.012323743663728237, -0.1768842339515686, 0.03138833865523338, 0.06510103493928909, -0.16430255770683289, 0.024379100650548935, 0.052821699529886246, 0.03827209770679474, -0.09174443036317825, 0.17145764827728271, 0.1315925568342209, 0.17875908315181732, -0.3170202076435089, 0.12637470662593842, 0.0707220509648323, -0.05185846611857414, 0.22318308055400848, 0.05918041244149208, -0.18605144321918488, 0.03303604945540428, 0.10491662472486496, 0.15076735615730286, 0.0233403742313385, -0.3146025538444519, 0.1017693504691124, -0.3251335024833679, -0.06616080552339554, -0.014413893222808838, -0.1467694640159607, -0.10136935114860535, -0.003445959649980068], [-0.018762731924653053, -0.043696749955415726, -0.15847787261009216, -0.011112749576568604, -0.007355125620961189, -0.0530218780040741, -0.03281744569540024, -0.019104743376374245, 0.01952069252729416, 0.014066152274608612, 0.03417382389307022, 0.09159518033266068, 0.027385253459215164, 0.11177657544612885, 0.061848439276218414, -0.0035349426325410604, -0.015925610437989235, 0.08982493728399277, 0.02862916700541973, -0.07673962414264679, -0.005090232472866774, 0.01379241980612278, 0.04654732719063759, -0.01047573797404766, 0.028977660462260246, -0.05305428430438042, -0.0344306118786335, 0.027748871594667435, 0.006063197739422321, 0.0748540461063385, -0.00936456210911274, -0.05220992490649223], [-0.10569358617067337, -0.36426761746406555, -0.0519343763589859, -0.08908262848854065, -0.010740433819591999, 0.24381476640701294, -0.041160698980093, 0.004818150773644447, -0.22239293158054352, 0.11487068235874176, -0.09485972672700882, 0.04210798442363739, -0.06964676827192307, 0.011260687373578548, -0.12017393112182617, -0.03741452842950821, 0.2121257185935974, -0.08518011122941971, -0.0775129646062851, -0.15432700514793396, -0.21439778804779053, 0.09037939459085464, -0.008934005163609982, -0.08047281950712204, -0.04024269059300423, 0.0256691575050354, 0.034057267010211945, -0.006675936281681061, 0.18886548280715942, -0.17409493029117584, 0.0018778417725116014, 0.07080806791782379], [-0.2631257474422455, 0.11148350685834885, 0.004583388101309538, 0.0034844509791582823, 0.1384362131357193, -0.03293503448367119, -0.07665916532278061, -0.0774724930524826, -0.16180430352687836, 0.012575087137520313, -0.0406426303088665, 0.044089265167713165, 0.16083793342113495, -0.02650652825832367, 0.11981816589832306, 0.11421601474285126, 0.10342274606227875, 0.08510623872280121, 0.08703342080116272, -0.1679476648569107, 0.10071763396263123, 0.068174347281456, 0.22364994883537292, 0.14277562499046326, -0.1860860139131546, 0.08904615789651871, -0.2312144935131073, -0.13964886963367462, 0.11825523525476456, -0.1713939905166626, -0.2612501084804535, 0.1392131894826889], [0.18536317348480225, -0.10991495102643967, 0.35260123014450073, 0.018836811184883118, -0.09085254371166229, 0.17851948738098145, -0.045062776654958725, 0.4088270664215088, -0.1287626475095749, -0.03992534056305885, 0.0849204733967781, -0.39307060837745667, -0.10188781470060349, -0.11161764711141586, 0.14869578182697296, -0.1476319134235382, -0.10150597989559174, -0.1590646207332611, -0.01527185644954443, 0.1760307252407074, -0.2847576141357422, 0.13861630856990814, -0.1957864761352539, 0.05536496266722679, -0.13141080737113953, 0.17620226740837097, -0.07398258149623871, -0.06615228950977325, -0.09713089466094971, -0.1420445442199707, -0.019975608214735985, -0.18521203100681305], [0.037085652351379395, -0.03005468100309372, 0.013091577216982841, -0.09653961658477783, 0.04370913654565811, -0.019272349774837494, 0.044320229440927505, 0.055921729654073715, -0.038021519780159, -0.09880730509757996, -0.25433188676834106, 0.05544718727469444, -0.004163291305303574, 0.04484836757183075, 0.050943225622177124, 0.03991220146417618, -0.04583326354622841, 0.10315651446580887, -0.06481362134218216, -0.14652907848358154, -0.11183259636163712, 0.14387211203575134, 0.06551901251077652, 0.03170735761523247, -0.07582104206085205, 0.043038733303546906, -0.004590439144521952, 0.039389319717884064, -0.002157327253371477, -0.10902510583400726, 0.021335650235414505, -0.014604822732508183], [0.034979913383722305, 0.026579292491078377, -0.006107729393988848, 0.009807102382183075, -0.15304122865200043, -0.08096004277467728, -0.03548542410135269, 0.07326643913984299, 0.017674926668405533, 0.06291432678699493, -0.15290355682373047, 0.18467499315738678, -0.10099536925554276, -0.18056634068489075, -0.09997878968715668, -0.06601861119270325, -0.07838934659957886, 0.16294161975383759, 0.14216911792755127, 0.06044958159327507, -0.011050906032323837, 0.14092405140399933, -0.08131593465805054, 0.015487512573599815, 0.010066421702504158, -0.13041551411151886, -0.037458620965480804, 0.06419000774621964, 0.07163094729185104, 0.06953424215316772, -0.08990427851676941, -0.11007750779390335], [-0.08071699738502502, -0.18287111818790436, 0.23790375888347626, -0.155681774020195, 0.04943893849849701, 0.23177888989448547, 0.13194823265075684, 0.03371087461709976, -0.12130113691091537, -0.08031924068927765, 0.07450404018163681, -0.15181076526641846, 0.033810053020715714, 0.20564785599708557, -0.1270407736301422, 0.14268958568572998, 0.191955104470253, -0.1939038783311844, -0.019789941608905792, 0.18353872001171112, 0.08236857503652573, -0.04558509960770607, -0.02461281046271324, 0.01782986894249916, -0.08348165452480316, 0.04975292086601257, 0.31275665760040283, -0.09512565284967422, 0.11302049458026886, -0.032638613134622574, 0.09885618835687637, -0.07525043934583664], [0.004479296505451202, -0.2066333293914795, -0.08431018143892288, 0.003660935442894697, -0.10887795686721802, 0.017939897254109383, -0.041754648089408875, 0.13220514357089996, 0.12928001582622528, 0.0335870124399662, 0.07159864902496338, 0.0969185084104538, 0.08125121146440506, -0.0733683854341507, 0.05580221116542816, -0.07310468703508377, -0.018928173929452896, -0.09221955388784409, 0.03215930238366127, 0.09551115334033966, -0.03889398276805878, -0.030462322756648064, 0.05649662762880325, 0.10110121220350266, 0.15043126046657562, -0.08800781518220901, -0.09847454726696014, 0.053318873047828674, -0.05239894986152649, 0.007304924540221691, -0.026927299797534943, 0.19602957367897034], [-0.03535056859254837, 0.14077091217041016, 0.38084176182746887, -0.016785481944680214, 0.0070520429871976376, 0.11543093621730804, -0.22030456364154816, 0.33997946977615356, -0.36264872550964355, 0.1602364033460617, 0.3836437463760376, -0.2891990542411804, -0.11230383068323135, -0.04855433478951454, 0.07230891287326813, -0.1137157753109932, 0.1877167671918869, -0.1730480045080185, -0.053554706275463104, 0.04413684830069542, -0.17093053460121155, 0.07824549823999405, 0.08388242870569229, -0.004056875128298998, 0.07015722990036011, 0.07906800508499146, -0.08230216801166534, 0.03948577493429184, 0.12921777367591858, -0.05701163411140442, 0.011975221335887909, 0.10618283599615097], [0.2619101107120514, -0.0438019260764122, -0.21276350319385529, 0.2234548181295395, 0.11011219024658203, -0.10047446936368942, 0.14528274536132812, -0.1626436859369278, -0.09421264380216599, -0.08394759148359299, -0.14745968580245972, 0.1946667581796646, -0.04107939824461937, -0.1472305804491043, -0.2355203628540039, 0.1594056934118271, -0.22173506021499634, -0.022780435159802437, 0.01085734460502863, -0.05443441495299339, -0.011035075411200523, 0.01694153994321823, 0.09586133062839508, -0.13775697350502014, 0.014480292797088623, -0.08104829490184784, 0.0884917750954628, 0.10794739425182343, 0.015641821548342705, 0.20721127092838287, 0.0732184424996376, 0.11824522912502289], [-0.12830206751823425, -0.02797059901058674, 0.18115320801734924, 0.11106230318546295, -0.01685718260705471, -0.08406763523817062, -0.11699958890676498, 0.16719867289066315, -0.041038721799850464, -0.1872061938047409, 0.17316648364067078, 0.09778263419866562, -0.006955819204449654, 0.04330547899007797, 0.10474314540624619, 0.12084853649139404, 0.041683342307806015, -0.088280089199543, 0.09313617646694183, -0.026717767119407654, 0.10906928777694702, 0.033134039491415024, 0.017034118995070457, 0.17364981770515442, 0.10544199496507645, 0.0006368743488565087, 0.07333410531282425, -0.034356847405433655, -0.03719374164938927, -0.04354222118854523, -0.0013329391367733479, 0.04761683568358421], [-0.02430015429854393, 0.3007253110408783, 0.14327353239059448, -0.13719987869262695, -0.09363522380590439, -0.07223810255527496, 0.13603395223617554, 0.09306424111127853, -0.02363497018814087, 0.08011948317289352, 0.1621209681034088, -0.17519503831863403, 0.024454466998577118, -0.11830870062112808, 0.20015810430049896, 0.07431598007678986, -0.04805421456694603, 0.2253907471895218, 0.10613448917865753, 0.0190699715167284, -0.13949820399284363, 0.207938551902771, -0.163194477558136, 0.25874730944633484, -0.20585742592811584, 0.08097721636295319, -0.13763172924518585, -0.01055576279759407, 0.19450819492340088, -0.014020806178450584, -0.14953109622001648, 0.061387915164232254], [0.04028543829917908, -0.009833133779466152, -0.31489962339401245, -0.09140729159116745, 0.04772239178419113, -0.2538018226623535, -0.04727060720324516, -0.25139933824539185, 0.2196037769317627, -0.0727011188864708, -0.18634438514709473, 0.13689813017845154, -0.062235284596681595, 0.17486216127872467, -0.2734055817127228, 0.21346209943294525, 0.05703172832727432, -0.074289970099926, -0.15545278787612915, 0.05339878797531128, 0.13441205024719238, -0.04920237138867378, 0.09514004737138748, -0.2130744308233261, 0.012380326166749, -0.12811213731765747, 0.058596983551979065, 0.05904285982251167, -0.08169512450695038, 0.03463473170995712, -0.007649044506251812, -0.15093037486076355], [0.06347797065973282, 0.14292803406715393, -0.10528171062469482, -0.00817121658474207, -0.06830330193042755, 0.026219138875603676, -0.1220221295952797, 0.0037770250346511602, -0.008728154003620148, 0.1103401854634285, 0.08573048561811447, 0.02581603080034256, 0.04092094302177429, 0.030540822073817253, -0.09276287257671356, -0.05982283130288124, 0.0475027896463871, -0.06445968896150589, 0.01696743629872799, -0.025590885430574417, 0.11617852747440338, -0.1036192923784256, 0.06256574392318726, -0.15738148987293243, -0.03938649222254753, -0.07173656672239304, -0.10069075226783752, -0.02736421674489975, -0.09958477318286896, 0.04099487140774727, -0.05079609900712967, 0.02999807521700859], [-0.02628771774470806, -0.17344598472118378, 0.004238319583237171, 0.10697915405035019, -0.007055428344756365, -0.0032827372197061777, 0.16665780544281006, 0.06465321779251099, -0.11142060905694962, 0.11776634305715561, -0.08988416194915771, -0.03273417055606842, 0.13523945212364197, -0.023511474952101707, -0.21563299000263214, 0.15685215592384338, -0.15284474194049835, -0.14771497249603271, -0.011982763186097145, 0.07001480460166931, -0.10506594181060791, 0.06625541299581528, -0.029955770820379257, 0.055527184158563614, 0.15469755232334137, 0.03327931836247444, 0.09873373061418533, -0.10050053894519806, 0.03162403404712677, 0.079791359603405, 0.2523648738861084, -0.04176053777337074], [-0.2363080084323883, 0.30265891551971436, 0.0004473067820072174, 0.05881006643176079, 0.09047146141529083, -0.11551597714424133, 0.11206486076116562, 0.01143310870975256, -0.033778559416532516, 0.11806502938270569, 0.23650234937667847, 0.08118391782045364, -0.13140486180782318, -0.05783301591873169, 0.2954503893852234, 0.030017495155334473, 0.127102330327034, 0.17430250346660614, -0.13983465731143951, 0.0022944065276533365, 0.025540312752127647, 0.036798249930143356, -0.013970725238323212, 0.031044332310557365, -0.15574117004871368, 0.12480877339839935, -0.19968578219413757, -0.1534903347492218, -0.0047667426988482475, -0.038576096296310425, -0.1507045328617096, -0.06305964291095734], [-0.022268738597631454, -0.01518400851637125, -0.051604483276605606, 0.03091469407081604, 0.03604191169142723, -0.14060735702514648, 0.012164631858468056, 0.07026278227567673, -0.21234549582004547, -0.014928802847862244, -0.05007261410355568, 0.3058205544948578, 0.14420610666275024, 0.121963270008564, 0.06207972764968872, -0.11634442210197449, -0.047709010541439056, 0.15113450586795807, 0.15173129737377167, 0.06802459061145782, -0.11373727023601532, 0.153615802526474, 0.056521907448768616, -0.009570014663040638, -0.04480976238846779, -0.08704238384962082, -0.08194949477910995, 0.0031771580688655376, -0.14298193156719208, -0.00201771454885602, 0.12946699559688568, 4.405737854540348e-07], [-0.17540422081947327, 0.2879289984703064, -0.1861521303653717, -0.06656038761138916, 0.030628910288214684, -0.20898157358169556, 0.059207484126091, -0.023259008303284645, 0.1957174688577652, 0.003763108979910612, 0.0866735652089119, -0.19402843713760376, 0.030708404257893562, 0.004261091351509094, 0.2123582512140274, 0.16330428421497345, 0.02082769200205803, -0.08077260851860046, -0.03508658707141876, -0.09923017024993896, 0.19190196692943573, 0.06754844635725021, 0.09691545367240906, -0.0514075867831707, -0.103693887591362, -0.10352636128664017, -0.04798981174826622, 0.08538864552974701, -0.07414863258600235, 0.20986168086528778, 0.0909854993224144, 0.007539717014878988], [-0.15051701664924622, 0.2734035849571228, -0.0788566917181015, 0.11993540823459625, 0.12793311476707458, -0.24677717685699463, -0.20053914189338684, -0.13212604820728302, -0.0928518995642662, -0.12883339822292328, -0.005584312602877617, 0.10772466659545898, 0.01578943058848381, 0.012725481763482094, 0.18956494331359863, -0.08281183242797852, 0.04141899198293686, 0.017351968213915825, -0.10296804457902908, 0.09522727876901627, 0.11770129948854446, 0.10331565886735916, 0.10297656059265137, 0.03048957698047161, 0.029277874156832695, 0.026361854746937752, -0.18902520835399628, 0.09040046483278275, -0.1732553243637085, -0.14538508653640747, -0.1905297040939331, 0.08845650404691696], [-0.15239425003528595, 0.0539635494351387, 0.02548319846391678, 0.062326785176992416, 0.0015332498587667942, -0.09792172908782959, -0.20038387179374695, -0.11249000579118729, -0.11923860013484955, -0.12330280989408493, 0.0011904895072802901, 0.0579836368560791, 0.06902200728654861, -0.14934290945529938, 0.1448250710964203, -0.1727004498243332, 0.10027945041656494, -0.02078389562666416, -0.14731746912002563, -0.22724424302577972, -0.09346364438533783, 0.07122040539979935, 0.054064277559518814, 0.01779724657535553, -0.0971459373831749, 0.06793923676013947, 0.0583486370742321, -0.06123826652765274, 0.017521481961011887, -0.09276975691318512, -0.07815264910459518, 0.14767183363437653], [0.08858830481767654, -0.10614301264286041, 0.15831784904003143, -0.22231127321720123, -0.021415285766124725, 0.15771125257015228, 0.05523652583360672, 0.14233487844467163, -0.09486418962478638, -0.0022636824287474155, 0.010816379450261593, -0.0665428563952446, -0.09022564440965652, -0.01752452552318573, 0.022506574168801308, 0.06624657660722733, 0.20390237867832184, -0.10495014488697052, -0.05544662103056908, 0.11520954966545105, -0.12126093357801437, 0.006880457047373056, -0.046996235847473145, 0.007945316843688488, 0.10086318850517273, 0.01093054935336113, -0.040563445538282394, 0.07465249300003052, 0.09750811755657196, -0.11412954330444336, -0.08817233890295029, 0.07567433267831802], [0.018046945333480835, 0.2027343362569809, -0.3202342689037323, 0.09664509445428848, -0.0791972205042839, -0.29217633605003357, -0.04261455312371254, -0.05619280785322189, 0.17151597142219543, -0.11177974194288254, -0.1525162309408188, 0.18533384799957275, 0.03800969570875168, -0.1991371512413025, -0.03913988545536995, -0.058187104761600494, -0.10957727581262589, 0.08911315351724625, -0.006106664426624775, -0.238906130194664, 0.12914404273033142, -0.07913441210985184, 0.14561693370342255, -0.04426637664437294, 0.04187082499265671, 0.01809130795300007, -0.12375105917453766, 0.019417474046349525, 0.12968391180038452, 0.006837890949100256, 0.052473146468400955, 0.05958487465977669], [-0.1952858418226242, 0.2629869282245636, 0.032412849366664886, 0.028916681185364723, 0.06363579630851746, -0.10709933191537857, 0.06559154391288757, 0.09717109054327011, -0.0352884940803051, 0.08548462390899658, 0.17238928377628326, -0.0305141881108284, 0.09305400401353836, -0.08338239043951035, 0.2573292553424835, 0.027247866615653038, 0.2510227859020233, -0.041598111391067505, 0.21518540382385254, 0.045317601412534714, -0.07961805909872055, 0.08865579962730408, -0.11798615753650665, -0.06316811591386795, -0.10656794160604477, 0.10473998636007309, -0.10017722100019455, 0.14983530342578888, 0.14327839016914368, 0.07935744524002075, -0.09747747331857681, 0.1588953137397766], [-0.05814293399453163, 0.17659398913383484, -0.1825074851512909, 0.05117231607437134, -0.029398152604699135, -0.14659053087234497, 0.008456408977508545, -0.013096887618303299, -0.09720925986766815, 0.08334410190582275, -0.143803209066391, -0.06533515453338623, -0.21360863745212555, -0.06253663450479507, -0.09091036766767502, 0.039123307913541794, -0.15225234627723694, -0.04948146268725395, -0.1982203871011734, -0.09415824711322784, 0.09979322552680969, -0.0649399608373642, -0.07157432287931442, -0.05033767968416214, 0.006603168789297342, 0.006123844534158707, 0.03584391251206398, 0.006480368319898844, 0.031925901770591736, -0.04647890850901604, 0.05277472734451294, 0.04023817181587219], [-0.1812686026096344, 0.2041437327861786, 0.05456855893135071, -0.08030491322278976, -0.15966959297657013, -0.05202045664191246, -0.11014772206544876, 0.09697700291872025, 0.005136198829859495, -0.10482065379619598, 0.12049945443868637, -0.06902215629816055, 0.06841772049665451, -0.18950945138931274, 0.14379945397377014, 0.06597892940044403, 0.07189171761274338, 0.016736330464482307, -0.12464743852615356, 0.12300261855125427, 0.048910122364759445, -0.003223924897611141, -0.06616487354040146, 0.11405114829540253, 0.04006066545844078, -0.11269478499889374, -0.18792249262332916, 0.07646575570106506, 0.08317112922668457, -0.08463960140943527, -0.01463630236685276, -0.04243088513612747], [0.17345349490642548, -0.026024043560028076, 0.09322593361139297, 0.0005940195405855775, 0.019370676949620247, 0.1538117527961731, -0.07259496301412582, -0.14558355510234833, 0.15795129537582397, 0.06428363174200058, -0.01114792749285698, -0.010987631045281887, 0.038004495203495026, -0.030069133266806602, -0.0228156428784132, 0.018818985670804977, -0.01218978501856327, -0.10601937770843506, 0.13292282819747925, 0.08592750877141953, -0.15512602031230927, -0.07745751738548279, -0.05109592527151108, -0.1843576729297638, -0.13881085813045502, -0.13381226360797882, 0.22746500372886658, -0.18034861981868744, 0.06846297532320023, -0.10655933618545532, -0.044524963945150375, 0.13530664145946503], [-0.05545404553413391, -0.07446124404668808, 0.04645933210849762, -0.07993046194314957, -0.09057404845952988, -0.015902748331427574, -0.04147743061184883, 0.05228124558925629, 0.18679463863372803, 0.1976749151945114, 0.1724485456943512, -0.16176937520503998, -0.009272553026676178, -0.06549370288848877, -0.012578645721077919, 0.024867182597517967, -0.09811437875032425, 0.12430509924888611, 0.0799700990319252, 0.08180809766054153, -0.16138258576393127, -0.21606740355491638, 0.10174672305583954, 0.10171482712030411, 0.1465369313955307, 0.15045024454593658, -0.2478041648864746, 0.12707088887691498, -0.1807895451784134, 0.09407257288694382, -0.23974943161010742, -0.0716162845492363], [-0.24396778643131256, -0.45347145199775696, 0.18104371428489685, -0.20595918595790863, -0.08931800723075867, 0.3004276156425476, 0.00722655700519681, 0.0036375797353684902, -0.0511484332382679, -0.11536282300949097, -0.3451269268989563, 0.005832761060446501, -0.07482223212718964, 0.047137629240751266, -0.04794206842780113, -0.11043204367160797, 0.2431902438402176, 0.0648358017206192, -0.09922744333744049, -0.14703863859176636, -0.11413407325744629, -0.10110462456941605, -0.040497634559869766, -0.19948919117450714, -0.05987142398953438, -0.08602545410394669, 0.14690658450126648, -0.2641492486000061, -0.08619813621044159, 0.008400514721870422, 0.06108550727367401, 0.12039998173713684], [-0.082492396235466, 0.025117741897702217, 0.10427096486091614, 0.01570858247578144, -0.052910611033439636, -0.009235931560397148, 0.058416061103343964, -0.09244728088378906, -0.07169307768344879, 0.05728363245725632, -0.2821032404899597, 0.23742817342281342, -0.006061166990548372, 0.009635347872972488, 0.08656683564186096, 0.042991090565919876, 0.019756020978093147, 0.005848833359777927, 0.11565164476633072, -0.1254953294992447, -0.06765350699424744, -0.07160602509975433, 0.12448995560407639, 0.20672796666622162, -0.036508042365312576, -0.07083436846733093, 0.1362302005290985, -0.16695617139339447, -0.07867755740880966, -0.10028796643018723, -0.09804967790842056, 0.09319047629833221], [-0.16208121180534363, 0.14053110778331757, -0.15752989053726196, -0.11540070921182632, 0.014488853514194489, -0.04876675456762314, -0.09741626679897308, 0.13242633640766144, 0.10495102405548096, -0.07969937473535538, 0.08056830614805222, -0.10726619511842728, 0.04343947023153305, -0.022200144827365875, 0.08528761565685272, -0.0827743411064148, 0.08464561402797699, -0.07588490843772888, 0.055596284568309784, -0.16993150115013123, -0.10488545149564743, 0.04702216386795044, -0.02770441398024559, -0.10485482215881348, -0.08991222828626633, -0.07205904275178909, -0.164558544754982, -0.13442867994308472, -0.12126584351062775, -0.10004070401191711, -0.07901862263679504, 0.10854889452457428], [0.037187881767749786, -0.1435820311307907, -0.04505392536520958, 0.002102405298501253, 0.0493827760219574, 0.053494084626436234, 0.12165060639381409, 0.1608901172876358, -0.16250397264957428, -0.08481406420469284, -0.12801651656627655, 0.11840847134590149, 0.08139825612306595, 0.022421417757868767, -0.2507127523422241, -0.010750919580459595, -0.059129275381565094, -0.12356563657522202, 0.0799848735332489, 0.17530828714370728, 0.06676315516233444, -0.031076084822416306, 0.04633307829499245, 0.12347839772701263, 0.016139689832925797, 0.13066276907920837, 0.07803722470998764, 0.09743496775627136, 0.1543096899986267, 0.017325816676020622, 0.22926895320415497, 0.1689307540655136], [0.11664969474077225, -0.1152445375919342, -0.1551864743232727, 0.11456647515296936, 0.06151234731078148, 0.024760261178016663, 0.07303088158369064, 0.007767186500132084, -0.1817111372947693, 0.06729377061128616, -0.03694135323166847, 0.016912546008825302, 0.005451756063848734, 0.15106035768985748, -0.15257573127746582, -0.03324638679623604, -0.0487755611538887, -0.07719017565250397, -0.13935337960720062, 0.017627548426389694, -0.16065867245197296, 0.14672864973545074, 0.06320922821760178, -0.07536640763282776, 0.09490037709474564, 0.11843883246183395, 0.1652582436800003, -0.08597470819950104, 0.10881763696670532, 0.051972661167383194, 0.138838529586792, -0.10274483263492584], [-0.06629684567451477, 0.162886843085289, -0.20986025035381317, -0.04756760597229004, -0.10917705297470093, 0.04546162486076355, -0.10109636932611465, 0.061032116413116455, -0.046893972903490067, -0.042671628296375275, -0.11685735732316971, 0.14348386228084564, -0.03774960711598396, -0.06489800661802292, 0.031944867223501205, -0.005022888537496328, 0.14136528968811035, 0.16138648986816406, 0.09367838501930237, -0.047418467700481415, -0.024190332740545273, 0.10407963395118713, 0.09242895990610123, -0.0734923705458641, 0.11696700006723404, 0.10803546011447906, 0.059097133576869965, -0.044439468532800674, -0.08203694969415665, -0.0728297308087349, -0.0920378714799881, -0.13287042081356049], [-0.013986583799123764, -0.1736435443162918, 0.05355426296591759, -0.04609249159693718, -0.0626552402973175, 0.31861045956611633, 0.05774854123592377, 0.09318949282169342, 0.007997401989996433, 0.03531154617667198, -0.08521390706300735, -0.05333578214049339, 0.04634103551506996, 0.05045264586806297, -0.27011099457740784, 0.01824573427438736, 0.08219335973262787, -0.21945184469223022, 0.005035561043769121, 0.14604894816875458, -0.07488895952701569, 0.04323510080575943, -0.05045490339398384, -0.11755809932947159, 0.1620047390460968, -0.1555963009595871, 0.33758968114852905, -0.10652369260787964, 0.11456891894340515, 0.06431220471858978, 0.3109285533428192, 0.03391996771097183], [0.22394441068172455, -0.21563230454921722, 0.034532006829977036, 0.007116044405847788, -0.021747058257460594, 0.1803404837846756, 0.12341559678316116, -0.07391725480556488, 0.08682896941900253, 0.03606854006648064, -0.23605693876743317, 0.13309220969676971, -0.061644863337278366, 0.02620694600045681, -0.16041627526283264, -0.07113036513328552, -0.1503487527370453, -0.0027382189873605967, -0.0168358962982893, 0.14675554633140564, -0.2024666666984558, 0.07633285969495773, -0.11806114763021469, -0.019373876973986626, 0.09522705525159836, -0.047833021730184555, 0.13190442323684692, -0.05300811305642128, -0.031821358948946, 0.1252092719078064, 0.08681679517030716, 0.05038304626941681], [-0.08852922171354294, 0.17524200677871704, -0.14312760531902313, -0.03508917614817619, -0.044861238449811935, -0.01869378797709942, 0.004118691198527813, -0.06146004796028137, 0.014813362620770931, 0.0049392106011509895, 0.22566702961921692, 0.1389642208814621, 0.09927893429994583, -0.005753456149250269, 0.0060791559517383575, -0.2032257318496704, 0.20915162563323975, 0.014042042195796967, 0.10446323454380035, -0.0659143328666687, 0.07494780421257019, 0.06373049318790436, 0.04866165667772293, -0.08273565769195557, 0.0866619274020195, -0.3429752290248871, 0.03325898200273514, 0.04950356110930443, 0.14742271602153778, -0.021502304822206497, 0.10376382619142532, 0.15851160883903503], [-0.06410708278417587, 0.0313328355550766, 0.012907217256724834, 0.035002220422029495, 0.011251806281507015, 0.030109312385320663, -0.029071977362036705, -0.0026663541793823242, -0.0022898437455296516, 0.017051318660378456, -0.059788405895233154, 0.02115575037896633, 0.013228649273514748, 0.1403326392173767, -0.13334831595420837, 0.007240289356559515, 0.02535875514149666, -0.04689501225948334, -0.021159688010811806, 0.009735962375998497, 0.022999746724963188, -0.11124058812856674, 0.009799454361200333, -0.13830699026584625, 0.10470002144575119, -0.07452911883592606, 0.05829870328307152, 0.005365971475839615, -0.035611651837825775, 0.05915118753910065, 0.06894458085298538, -0.011067096143960953], [-0.03555327653884888, 0.04907063767313957, -0.03975582495331764, -0.0020218128338456154, -0.0010968840215355158, 0.015173353254795074, -0.0515546053647995, 0.032536257058382034, 0.04942198470234871, 0.035448990762233734, 0.08826286345720291, 0.024780619889497757, 0.005833900533616543, 0.10896609723567963, -0.025884661823511124, 0.016438335180282593, 0.05576977878808975, -0.08486395329236984, -0.00018377357628196478, -0.008635470643639565, 0.022767499089241028, -0.07070180028676987, 0.029332328587770462, 0.004715702496469021, 0.07759817689657211, -0.08398938924074173, 0.02088158391416073, 0.03062129020690918, 0.021049251779913902, 0.010661868378520012, 0.059632137417793274, 0.04364406317472458], [-0.0591178834438324, -0.030349036678671837, -0.061333321034908295, -0.028711669147014618, 0.07515567541122437, 0.007804796099662781, 0.007128855213522911, -0.06267336755990982, 0.08340583741664886, 0.045335553586483, 0.021225115284323692, 0.055752839893102646, -0.047162748873233795, 0.0914183035492897, 0.008335234597325325, -0.030713055282831192, 0.09298959374427795, -0.004779668524861336, 0.020475398749113083, -0.004881738685071468, 0.009485231712460518, 0.010362040251493454, 0.03961370885372162, 0.11124227941036224, -0.07793726027011871, -0.052720922976732254, 0.04053439199924469, 0.019400065764784813, -0.01644500158727169, 0.024592455476522446, -0.005057360045611858, 0.08897442370653152], [0.027154214680194855, -0.029856756329536438, 0.05908577889204025, -0.016679350286722183, -0.03852997347712517, 0.0939364805817604, 0.01859806850552559, 0.09767935425043106, -0.06966390460729599, 0.026760615408420563, -0.013850401155650616, -0.036459289491176605, 0.01885320246219635, 0.007917610928416252, -0.14705930650234222, -0.004155565518885851, -0.004100567661225796, -0.010522439144551754, -0.02245539426803589, 0.049277495592832565, -0.03818436712026596, -0.06032048910856247, -0.06152443587779999, -0.08145599067211151, 0.015723111107945442, -0.06104257330298424, 0.038392405956983566, 0.019212091341614723, 0.018322698771953583, 0.0636121854186058, 0.04520923271775246, -0.011082414537668228], [0.09562058746814728, -0.005558964796364307, -0.008206719532608986, -0.16124804317951202, 0.005278765689581633, 0.03436138853430748, -0.054047923535108566, -0.19816474616527557, 0.02356320433318615, -0.2330871969461441, 0.07882443815469742, 0.03626982122659683, 0.11669489741325378, 0.03828037157654762, 0.056247059255838394, -0.2961633801460266, 0.08661214262247086, 0.08188565075397491, 0.16621574759483337, -0.012376049533486366, 0.01858566515147686, -0.04634293168783188, 0.0856122225522995, -0.060599491000175476, 0.09761099517345428, -0.07919365167617798, 0.008930799551308155, 0.05914837867021561, 0.021180598065257072, -0.10935364663600922, 0.019804952666163445, 0.054756779223680496], [0.11250214278697968, -0.06286896765232086, -0.10036709904670715, -0.08236895501613617, 0.0338122695684433, 0.06829307228326797, -0.005841941572725773, -0.13655602931976318, 0.09472794830799103, -0.09938456863164902, -0.04368431493639946, 0.15113113820552826, 0.018855728209018707, 0.01839238964021206, -0.020198097452521324, -0.029037464410066605, 0.0006130872061476111, -0.051696766167879105, -0.045671187341213226, -0.03859548270702362, 0.10299967229366302, -0.061903152614831924, 0.025556521490216255, -0.10070755332708359, 0.1357186883687973, -0.032472822815179825, 0.009752682410180569, -0.0035565560683608055, -0.021965961903333664, 0.07793071866035461, -0.016614176332950592, -0.0428418293595314], [-0.033934272825717926, -0.015922311693429947, -0.17082911729812622, -0.03710760548710823, -0.03679945692420006, -0.06118026748299599, -0.028032846748828888, -0.1605641394853592, 0.1664295345544815, -0.0963643342256546, -0.15876588225364685, 0.16384951770305634, 0.02233768440783024, 0.061983153223991394, -0.10916747897863388, -0.03215121477842331, -0.002708486979827285, -0.04053586348891258, -0.01633785478770733, -0.10706114023923874, 0.15107011795043945, -0.2010864019393921, 0.04771677777171135, -0.10035070031881332, 0.10401173681020737, -0.019361846148967743, 0.059123530983924866, 0.0661749467253685, -0.028729990124702454, 0.046548400074243546, 0.04334922507405281, 0.04874612018465996], [0.17452368140220642, -0.30138880014419556, -0.06766611337661743, 0.1188095360994339, -0.028414199128746986, 0.14305925369262695, 0.1599193811416626, -0.09470333158969879, -0.0851321890950203, 0.001605021534487605, -0.10889945179224014, -0.0466313473880291, -0.047170694917440414, 0.10948595404624939, -0.1794067770242691, 0.059490930289030075, -0.06029108539223671, -0.04349372908473015, -0.16494633257389069, 0.22991809248924255, -0.2080012708902359, -0.13958445191383362, -0.16145817935466766, -0.07431334257125854, 0.10523781925439835, 0.0319017730653286, 0.17359566688537598, -0.10912194848060608, -0.09595020860433578, 0.18049520254135132, 0.1046842485666275, -0.04402817785739899], [0.029307814314961433, 0.028754092752933502, -0.05264497548341751, 0.005286515224725008, 0.04862940311431885, 0.049037400633096695, -0.0006685357075184584, -0.10288640856742859, -0.037260785698890686, -0.038383908569812775, -0.03754642233252525, -0.012456025928258896, -0.021146630868315697, 0.07228301465511322, 0.026035353541374207, -0.013201270252466202, 0.11829090863466263, 0.02122187428176403, 0.07107099890708923, 0.05444275587797165, -0.033565156161785126, 0.06151317059993744, -0.04342358559370041, -0.078107550740242, 0.0263779629021883, -0.07917522639036179, -0.02024003677070141, -0.04981137439608574, 0.03530470281839371, -0.03883830085396767, -0.0013212549965828657, 0.06181997060775757], [-0.13456441462039948, 0.14786449074745178, -0.11263256520032883, -0.014772544614970684, -0.0014382170047610998, -0.0345541313290596, -0.05416083708405495, -0.11680690199136734, 0.06511995196342468, -0.006257769651710987, 0.1191946268081665, 0.0217699334025383, -0.0002611260861158371, 0.09841683506965637, -0.05510621890425682, 0.0032547691371291876, 0.07103656232357025, 0.005862029734998941, 0.009026804938912392, -0.02226138859987259, 0.10896776616573334, -0.009957126341760159, 0.004049401730298996, -0.08649663627147675, 0.044727928936481476, -0.06633491814136505, 0.008295655250549316, 0.03261157497763634, 0.006171800661832094, 0.014454376883804798, 0.024138323962688446, 0.012300367467105389], [0.1313246190547943, 0.049049828201532364, -0.05992589518427849, -0.048711150884628296, 0.15780074894428253, -0.058896254748106, 0.0477517731487751, -0.1385800540447235, -0.06348671019077301, 0.04066608473658562, -0.09844113886356354, -0.0762181207537651, -0.010914426296949387, -0.00514476140961051, 0.02411041036248207, 0.13209879398345947, 0.021132387220859528, 0.006131378933787346, 0.13122645020484924, -0.24054516851902008, -0.0827481672167778, -0.04688485339283943, -0.012251683510839939, 0.00978048611432314, -0.030089866369962692, 0.07660660147666931, -0.1902218908071518, 0.17431320250034332, 0.04555850476026535, 0.02388337068259716, -0.07650510966777802, -0.05176287144422531], [0.35186058282852173, -0.020213136449456215, -0.0027530575171113014, -0.014501227997243404, 0.06887940317392349, -0.21807663142681122, -0.03264732286334038, 0.102881520986557, -0.019661927595734596, -0.017962627112865448, -0.027814382687211037, -0.022695530205965042, -0.042186759412288666, -0.04167751967906952, 0.15279480814933777, -0.0753890797495842, -0.039602480828762054, -0.011588421650230885, 0.011740966700017452, -0.0026207095943391323, -0.09721188247203827, -0.0019499826012179255, 0.01812753453850746, 0.07690470665693283, -0.18520821630954742, 0.08833609521389008, -0.12261001765727997, 0.02032657153904438, -0.08616828918457031, 0.04630518704652786, -0.11709894239902496, 0.11664106696844101], [-0.016556639224290848, 0.006065601948648691, 0.007205823436379433, -0.00712241604924202, -0.009592556394636631, 0.03798213601112366, 0.00711014261469245, -0.008262773975729942, 0.01318788155913353, -0.014823264442384243, 0.029230952262878418, 0.005025237798690796, 0.004690314177423716, 0.052825555205345154, -0.06926755607128143, -0.011180241592228413, 0.006606666371226311, -0.060629673302173615, -0.01259276457130909, 0.016076304018497467, 0.01766110584139824, -0.025779452174901962, -0.002753146458417177, -0.0568016916513443, 0.06405405700206757, -0.07452604174613953, 0.07550003379583359, -0.004467379301786423, -0.0050928848795592785, 0.03164389729499817, 0.08648696541786194, -0.014668161049485207], [0.1053534522652626, -0.17729602754116058, 0.13818679749965668, -0.029439879581332207, -0.03574977070093155, 0.18893541395664215, 0.060946013778448105, -0.07631538808345795, 0.050358839333057404, 0.001759120961651206, -0.16672107577323914, -0.019038306549191475, -0.06765491515398026, 0.18427520990371704, -0.2510451376438141, 0.006534037180244923, -0.02490837313234806, -0.2169991135597229, -0.0700821802020073, 0.15451623499393463, -0.06730055809020996, -0.23863394558429718, -0.1262272596359253, -0.21772050857543945, 0.1990010142326355, -0.10591215640306473, 0.23617078363895416, -0.015451711602509022, -0.06876645237207413, 0.1105237677693367, 0.1576649397611618, -0.10345909744501114], [-0.020324774086475372, -0.034395862370729446, -0.18780703842639923, -0.024392230436205864, -0.001405559480190277, -0.021982014179229736, -0.044615041464567184, -0.06728412210941315, -0.0034624713007360697, -0.006309026852250099, -0.049582935869693756, 0.052909933030605316, 0.0022588148713111877, -0.16801230609416962, -0.021162981167435646, -0.014605526812374592, 0.031343165785074234, -0.07418985664844513, -0.03184137120842934, -0.03675437718629837, -0.0010686443420127034, -0.15704001486301422, -0.05636823922395706, -0.03811047226190567, -0.1638302057981491, 0.13523340225219727, -0.12562347948551178, -0.024332385510206223, 0.1411965787410736, -0.07218407094478607, -0.21713823080062866, 0.08310467004776001], [0.03484145179390907, -0.1135244369506836, -0.14596906304359436, -0.04323582351207733, 0.04942525550723076, -0.13582636415958405, -0.0748937800526619, -0.10168121010065079, 0.025429977104067802, 0.014619553461670876, -0.12129093706607819, 0.005785523448139429, 0.032404523342847824, 0.12237544357776642, 0.044484641402959824, 0.016782687976956367, 0.04887859523296356, -0.04512392729520798, -0.06874679774045944, -0.1383756846189499, 0.013830408453941345, -0.014981657266616821, 0.05642744526267052, -0.12301984429359436, -0.04157530516386032, 0.07474610209465027, 0.03388601914048195, 0.1532629430294037, -0.10358166694641113, 0.04392532259225845, -0.18754161894321442, -0.09976112097501755], [-0.19848226010799408, 0.18712089955806732, -0.22619660198688507, -0.02572694420814514, 0.023129671812057495, -0.01487000659108162, -0.0889350101351738, -0.057832151651382446, 0.09111414104700089, 0.02360878512263298, 0.07963111996650696, 0.06056371331214905, 0.032539065927267075, 0.0702122151851654, -0.0009934031404554844, -0.06723769009113312, 0.04373203217983246, -0.01653287559747696, 0.08216339349746704, 0.04217160865664482, 0.17895673215389252, 0.06674837321043015, 0.08008809387683868, 0.09666536003351212, -0.06818544864654541, -0.07983862608671188, -0.05984800308942795, 0.08867202699184418, 0.07632767409086227, 0.013911295682191849, -0.08274326473474503, 0.10049821436405182], [-0.17371869087219238, 0.03339046239852905, -0.09078597277402878, -0.061937130987644196, 0.0010939758503809571, 0.150132954120636, -0.1327233761548996, 0.00844493880867958, 0.07589181512594223, 0.06998451799154282, 0.07240328937768936, 0.0105990469455719, 0.10475034266710281, 0.009294688701629639, -0.13105133175849915, -0.13126429915428162, 0.1618240773677826, -0.06916037201881409, -0.00441953307017684, 0.036983173340559006, 0.11702615022659302, 0.05750109255313873, 0.10139816999435425, -0.11851990967988968, 0.1938902735710144, -0.194011852145195, 0.1872835010290146, 0.03586921840906143, 0.04852503910660744, 0.05973702669143677, 0.22887827455997467, 0.047755222767591476], [0.11855054646730423, 0.018523916602134705, -0.061131928116083145, -0.07850615680217743, 0.13198992609977722, -0.0648006722331047, -0.07203041017055511, 0.029562918469309807, 0.08270961046218872, 0.010902969166636467, 0.08582416921854019, 0.06685566157102585, 0.014813107438385487, -0.11296949535608292, -0.03201814368367195, 0.047949403524398804, -0.03802695497870445, 0.16703861951828003, 0.006737321615219116, -0.10340970009565353, -0.1128760501742363, -0.06493804603815079, 0.028188135474920273, 0.02341308258473873, -0.008671477437019348, -0.09625647217035294, -0.16401439905166626, 0.08395317196846008, 0.07875050604343414, -0.0741134062409401, -0.15215104818344116, -0.10581385344266891], [0.03754611313343048, 0.07743330299854279, 0.005458301864564419, 0.03775506839156151, 0.0028752987273037434, -0.019921807572245598, -0.0010595511412248015, 0.026951154693961143, 0.07798125594854355, 0.04608248174190521, 0.040360283106565475, 0.052470311522483826, 0.04163377359509468, -0.0174388587474823, -0.08593537658452988, 0.0018877688562497497, 0.06674600392580032, -0.0582355298101902, 0.028288669884204865, -0.02539259009063244, 0.09180550277233124, -0.1263064295053482, -0.005313219036906958, -0.10990411043167114, 0.08231265097856522, -0.10693246871232986, 0.042018160223960876, 0.06927593052387238, -0.03785360977053642, 0.04584745317697525, 0.033925674855709076, 0.04358881339430809], [0.1651373654603958, 0.041583798825740814, -0.17611293494701385, -0.04400354623794556, 0.15508177876472473, -0.06343850493431091, 0.014344065450131893, -0.14575248956680298, 0.04767988994717598, 0.08563287556171417, -0.007432958111166954, 0.09943445026874542, -0.07323241978883743, -0.23124685883522034, 0.09558518975973129, -0.039815377444028854, 0.03175707161426544, -0.001134009682573378, 0.1794171780347824, -0.1315460503101349, 0.10061422735452652, -0.04417898878455162, 0.059019919484853745, 0.052224401384592056, -0.08296364545822144, 0.055719826370477676, -0.1965918242931366, -0.08125020563602448, 0.03311771899461746, -0.17325767874717712, -0.08177905529737473, 0.058886297047138214], [0.0683959573507309, -0.08371669799089432, -0.12919257581233978, 0.035594359040260315, -0.02855226770043373, -0.1263558715581894, -0.11121632158756256, -0.019848721101880074, 0.12267822027206421, -0.007107711862772703, -0.13289889693260193, 0.10672998428344727, -0.03347351402044296, -0.152351975440979, -0.034237585961818695, 0.06531507521867752, 0.0031081573106348515, 0.17985321581363678, 0.12814798951148987, -0.1251203715801239, -0.05749630182981491, 0.1271888017654419, 0.07391282171010971, 0.1865685135126114, -0.1093306615948677, 0.1907103806734085, -0.004898636601865292, 0.04030049219727516, 0.05829983577132225, -0.09963066875934601, -0.2657519280910492, 0.028354864567518234], [0.08913622796535492, 0.027318710461258888, -0.15250808000564575, 0.042172785848379135, 0.12095341086387634, -0.1927712857723236, -0.05695366859436035, -0.05394364893436432, 0.08743135631084442, 0.01309498492628336, 0.029971245676279068, 0.04034601151943207, 0.023869702592492104, -0.13631954789161682, 0.18714337050914764, 0.047265078872442245, -0.06171830743551254, 0.09928886592388153, 0.11280762404203415, -0.11997712403535843, 0.07177801430225372, 0.09208237379789352, 0.007152453530579805, 0.20517376065254211, -0.09747397154569626, 0.1450781673192978, -0.2588523030281067, 0.13990502059459686, -0.008517296053469181, -0.07190929353237152, -0.20562520623207092, 0.0066399117931723595], [0.183649480342865, -0.03351431339979172, -0.10555138438940048, -0.02806158922612667, 0.09000588208436966, -0.07566293329000473, 0.06071917712688446, 0.013696296140551567, -0.05551346391439438, -0.04987003281712532, -0.017644761130213737, -0.008578249253332615, 0.0070839524269104, -0.06995318830013275, 0.11340702325105667, 0.020427461713552475, -0.10140854120254517, 0.09125365316867828, 0.10127498209476471, -0.09273114055395126, -0.0859067365527153, 0.06263794004917145, -0.004826391581445932, 0.2139798253774643, -0.16200244426727295, 0.13169607520103455, -0.1375333070755005, 0.0022602477110922337, 0.06999416649341583, -0.11733272671699524, -0.21237622201442719, 0.07606526464223862], [-0.004726521670818329, 0.05065008997917175, -0.02239822968840599, 0.02309885062277317, 0.08779685944318771, 0.0179268978536129, -0.03314216807484627, -0.07986193150281906, 0.1029265969991684, 0.027319282293319702, 0.06563422083854675, 0.025737714022397995, 0.008008131757378578, 0.0709221363067627, -0.060924600809812546, 0.012390818446874619, 0.024435805156826973, 0.019575530663132668, -0.0026674787513911724, 0.023054709658026695, 0.03243369981646538, -0.12309519946575165, 0.0009262499515898526, -0.1271635890007019, 0.019831880927085876, -0.09309371560811996, -0.02487974427640438, 0.125976100564003, -0.02976818010210991, 0.004014057572931051, 0.050748422741889954, 0.0012857822002843022], [0.08242647349834442, -0.13432230055332184, 0.01619860902428627, -0.008412957191467285, -0.009114689193665981, 0.13347941637039185, -0.00855934526771307, -0.0682106763124466, 0.029134225100278854, -0.027705680578947067, -0.12123066186904907, 0.0012851794017478824, 0.012803120538592339, 0.15917204320430756, -0.1667470484972, -9.596673771739006e-05, 0.01974344812333584, -0.06131685897707939, -0.0711350217461586, -0.03307434543967247, -0.10152652114629745, -0.15227951109409332, -0.07038690149784088, -0.0463363341987133, 0.0501738116145134, -0.034879282116889954, 0.045871470123529434, -0.06515856087207794, -0.07463505119085312, 0.090751513838768, 0.0664311870932579, -0.0700005292892456], [0.15450537204742432, -0.02358747273683548, -0.11207643151283264, 0.017605412751436234, 0.08792653679847717, -0.07254362106323242, -0.035393547266721725, -0.055795468389987946, 0.059575796127319336, -0.027455585077404976, -0.01349356584250927, 0.019674483686685562, -0.0021805015858262777, -0.04214288666844368, -0.03878162056207657, 0.022418402135372162, -0.08098306506872177, 0.06119829788804054, -0.07965505123138428, -0.10206624865531921, -0.007597574032843113, 0.025024866685271263, 0.030140383169054985, 0.0021191989071667194, 0.03200447931885719, 0.03332182765007019, -0.018010728061199188, 0.028282860293984413, -0.11859353631734848, -0.030879179015755653, -0.17257815599441528, -0.004620856139808893], [0.09679065644741058, 0.05427659675478935, -0.16792897880077362, 0.047187574207782745, 0.2104252725839615, -0.13715079426765442, -0.027181578800082207, -0.05053006857633591, 0.15578539669513702, -0.016807453706860542, 0.05036916211247444, 0.0008611992816440761, 0.014885149896144867, -0.24150338768959045, 0.010624668560922146, 0.01852400414645672, -0.06396814435720444, 0.1286812275648117, 0.16131140291690826, -0.09858475625514984, 0.031952984631061554, -0.08334115892648697, 0.05169248953461647, 0.21599836647510529, -0.18889574706554413, 0.10632191598415375, -0.11738760769367218, 0.13246648013591766, 0.07722224295139313, -0.16356883943080902, -0.16611456871032715, 0.08026757836341858], [-0.0170961432158947, -0.0011356264585629106, -0.11340262740850449, -0.005020223092287779, 0.006478209048509598, 0.012169066816568375, -0.04991086199879646, -0.03147774562239647, 0.1191306784749031, 0.03403856232762337, -0.06160661578178406, 0.062270622700452805, 0.007468924392014742, 0.03591809421777725, -0.18082362413406372, -0.0024489795323461294, -0.00957348383963108, 0.05390946567058563, -0.10561297088861465, -0.017171183601021767, -0.0012539932504296303, 0.038384318351745605, -0.036921046674251556, -0.1675778329372406, 0.008715610019862652, -0.10417497158050537, -0.008402755483984947, -0.016898367553949356, -0.0910121500492096, 0.09866282343864441, 0.07587286829948425, -0.05673046410083771]], "lstm.bias_ih_l0": [0.007715958636254072, -0.03867054358124733, 0.04016131907701492, -0.07471111416816711, 0.022846633568406105, 0.10698501765727997, 0.08761654794216156, 0.03919767588376999, -0.10574980080127716, -0.260132759809494, 0.04574648663401604, -0.1116122454404831, -0.20189864933490753, -0.021755414083600044, 0.07084086537361145, -0.1144050806760788, -0.034722644835710526, -0.07973235845565796, 0.07889562845230103, -0.1326737105846405, -0.05234814062714577, 0.10612818598747253, -0.22684647142887115, 0.016412433236837387, -0.08739115297794342, -0.21130317449569702, 0.016239583492279053, -0.08941830694675446, -0.11670228093862534, -0.0694488137960434, -0.09198899567127228, -0.2025161236524582, -0.09421530365943909, 0.2670392692089081, 0.33273565769195557, -0.21448804438114166, -0.0414656363427639, 0.1609232872724533, 0.044050928205251694, 0.5206090211868286, 0.15614137053489685, 0.02535252273082733, 0.03580441698431969, -0.13776716589927673, -0.14444388449192047, 0.15536195039749146, 0.13462695479393005, -0.11316047608852386, -0.09554990381002426, 0.004034210927784443, 0.0358298197388649, 0.10463418066501617, 0.010923968628048897, 0.05392377823591232, -0.1799696385860443, 0.21025116741657257, -0.03647768869996071, 0.11034506559371948, 0.038006916642189026, -0.13410305976867676, 0.11677966266870499, 0.1736864298582077, 0.047031424939632416, 0.10713627934455872, -0.11538026481866837, -0.09383808076381683, -0.1211443617939949, 0.1043345183134079, -0.14278079569339752, -0.03890836611390114, 0.12964306771755219, 0.10074179619550705, -0.11057621240615845, 0.018683284521102905, -0.07960744202136993, 0.09116670489311218, 0.01686871238052845, -0.06925094872713089, 0.10955224931240082, -0.07256140559911728, 0.12846028804779053, -0.021736089140176773, -0.1094869077205658, 0.01958579383790493, 0.07072202861309052, 0.1590500771999359, -0.040644194930791855, 0.020710263401269913, -0.07735177874565125, 0.04749470204114914, 0.050246287137269974, -0.05901426821947098, -0.04201590269804001, 0.039700623601675034, -0.051022354513406754, -0.1289508044719696, 0.07396242767572403, -0.11106361448764801, 0.049997374415397644, -0.22515802085399628, -0.19433267414569855, 0.09924402087926865, -0.19989748299121857, -0.25809985399246216, -0.05199434608221054, -0.032066937536001205, 0.004206398501992226, -0.12046835571527481, -0.2526099383831024, 0.1314801424741745, 0.11532280594110489, 0.00894375704228878, -0.14886249601840973, -0.08771561086177826, -0.19132515788078308, -0.013892673887312412, 0.0182708278298378, -0.18917839229106903, -0.11096694320440292, -0.03009808622300625, 0.08547613769769669, -0.2282518595457077, 0.12939928472042084, -0.048545319586992264, -0.12077730894088745, 0.011893029324710369, 0.12202160805463791, 0.07764669507741928], "lstm.bias_hh_l0": [0.027664057910442352, 0.15754269063472748, -0.01011563464999199, -0.22574491798877716, -0.05897703021764755, 0.12874001264572144, -0.042285241186618805, 0.10762933641672134, -0.16043664515018463, -0.11754199862480164, -0.0014403556706383824, 0.03290446102619171, -0.06676753610372543, -0.007398642133921385, 0.05096987262368202, -0.1289307028055191, -0.2754453718662262, 0.08387850224971771, -0.18262879550457, 0.04526354745030403, 0.13252666592597961, 0.16424192488193512, 0.04008527472615242, -0.0388304702937603, -0.026747634634375572, -0.15000441670417786, 0.11459451168775558, -0.028764549642801285, 0.04246098920702934, -0.12113801389932632, -0.0391618087887764, 0.03889560326933861, 0.04525899887084961, 0.2279842346906662, 0.4824318289756775, -0.18482525646686554, -0.1486627459526062, 0.09912155568599701, -0.15407878160476685, 0.2953217625617981, 0.053570400923490524, -0.04839325323700905, 0.189067080616951, -0.10331551730632782, -0.22250987589359283, -0.06565023213624954, 0.22994855046272278, -0.06959131360054016, -0.03133740276098251, -0.016585392877459526, -0.0677066370844841, -0.16565272212028503, -0.145579531788826, 0.15473830699920654, -0.19798488914966583, 0.012148279696702957, -0.11485521495342255, -0.10899724066257477, -0.022086985409259796, -0.10055963695049286, 0.10202641785144806, 0.010690305382013321, 0.2889266014099121, -0.08871929347515106, 0.09526106715202332, 0.03296402469277382, 0.07249153405427933, -0.15849484503269196, 0.07503638416528702, 0.05589428171515465, -0.08065126836299896, 0.016636427491903305, 0.06241519749164581, -0.09488001465797424, -0.0490986593067646, 0.08131390810012817, 0.08256454020738602, -0.11702153086662292, -0.0873887836933136, -0.05779745802283287, -0.04217711091041565, 0.11418993771076202, 0.11260814964771271, -0.048301514238119125, -0.1154874712228775, 0.07804818451404572, 0.09561749547719955, 0.11772821098566055, -0.013389031402766705, -0.032645270228385925, -0.0625913217663765, -0.07780317217111588, 0.11224950850009918, -0.08946714550256729, 0.04656974971294403, 0.1633756160736084, 0.021019605919718742, -0.04418805614113808, 0.03078380413353443, -0.28997793793678284, -0.0809958428144455, 0.016651952639222145, -0.07027079910039902, -0.19085313379764557, -0.1406775861978531, -0.20434491336345673, -0.06919335573911667, 0.035378843545913696, -0.21405763924121857, -0.10437897592782974, 0.2314952313899994, -0.010382117703557014, -0.15709570050239563, -0.16382811963558197, -0.08028759062290192, -0.17530056834220886, -0.16609643399715424, 0.06586315482854843, -0.023020194843411446, 0.05903216823935509, -0.1348431259393692, -0.02637571655213833, 0.15980057418346405, -0.04787372425198555, -0.2092220038175583, 0.008330065757036209, 0.13683320581912994, 0.10109743475914001], "dense.weight": [[0.25731414556503296, -0.060285650193691254, 0.058816634118556976, -0.08466275036334991, -0.11109311133623123, 0.10673977434635162, 0.149998277425766, 0.028769491240382195, -0.12301882356405258, -0.11625756323337555, 0.13890552520751953, -0.14782997965812683, -0.02310818061232567, -0.16268426179885864, 0.26091575622558594, -0.05688716843724251, 0.0027290324214845896, 0.003769075497984886, 0.16512639820575714, 0.1749054491519928, -0.13966909050941467, 0.10107390582561493, -0.12327349931001663, 0.11990192532539368, -0.03106127679347992, 0.0391201376914978, -0.008145526051521301, -0.06948569416999817, 0.09308385103940964, -0.0737617090344429, -0.07017539441585541, 0.018347052857279778]], "dense.bias": [-0.11751111596822739]}